digraph Tree {
node [shape=box, style="filled, rounded", color="black", fontname=helvetica] ;
edge [fontname=helvetica] ;
0 [label="X[18] <= 1.5\ngini = 0.48\nsamples = 5949\nvalue = [3618, 2331]", fillcolor="#f6d2b9"] ;
1 [label="X[10] <= 45.5\ngini = 0.4\nsamples = 4718\nvalue = [3409, 1309]", fillcolor="#efb185"] ;
0 -> 1 [labeldistance=2.5, labelangle=45, headlabel="True"] ;
2 [label="X[20] <= 0.5\ngini = 0.27\nsamples = 3212\nvalue = [2698, 514]", fillcolor="#ea995f"] ;
1 -> 2 ;
3 [label="X[9] <= 42.5\ngini = 0.23\nsamples = 2922\nvalue = [2543, 379]", fillcolor="#e99457"] ;
2 -> 3 ;
4 [label="X[19] <= 0.5\ngini = 0.14\nsamples = 1960\nvalue = [1807, 153]", fillcolor="#e78c4a"] ;
3 -> 4 ;
5 [label="X[10] <= 34.5\ngini = 0.12\nsamples = 1834\nvalue = [1712, 122]", fillcolor="#e78a47"] ;
4 -> 5 ;
6 [label="X[11] <= 51.5\ngini = 0.08\nsamples = 1124\nvalue = [1079, 45]", fillcolor="#e68641"] ;
5 -> 6 ;
7 [label="X[22] <= 5.5\ngini = 0.07\nsamples = 1108\nvalue = [1067, 41]", fillcolor="#e68641"] ;
6 -> 7 ;
8 [label="X[10] <= 30.5\ngini = 0.07\nsamples = 1096\nvalue = [1058, 38]", fillcolor="#e68640"] ;
7 -> 8 ;
9 [label="X[21] <= 5.5\ngini = 0.04\nsamples = 692\nvalue = [677, 15]", fillcolor="#e6843d"] ;
8 -> 9 ;
10 [label="X[11] <= 50.5\ngini = 0.04\nsamples = 666\nvalue = [654, 12]", fillcolor="#e5833d"] ;
9 -> 10 ;
11 [label="X[12] <= 50.5\ngini = 0.03\nsamples = 658\nvalue = [647, 11]", fillcolor="#e5833c"] ;
10 -> 11 ;
12 [label="X[8] <= 31.0\ngini = 0.03\nsamples = 598\nvalue = [590, 8]", fillcolor="#e5833c"] ;
11 -> 12 ;
13 [label="X[9] <= 39.5\ngini = 0.05\nsamples = 258\nvalue = [251, 7]", fillcolor="#e6853f"] ;
12 -> 13 ;
14 [label="X[17] <= 3.7\ngini = 0.04\nsamples = 243\nvalue = [238, 5]", fillcolor="#e6843d"] ;
13 -> 14 ;
15 [label="X[22] <= 3.0\ngini = 0.15\nsamples = 12\nvalue = [11, 1]", fillcolor="#e78c4b"] ;
14 -> 15 ;
16 [label="gini = 0.0\nsamples = 10\nvalue = [10, 0]", fillcolor="#e58139"] ;
15 -> 16 ;
17 [label="X[9] <= 31.0\ngini = 0.5\nsamples = 2\nvalue = [1, 1]", fillcolor="#ffffff"] ;
15 -> 17 ;
18 [label="gini = 0.0\nsamples = 1\nvalue = [1, 0]", fillcolor="#e58139"] ;
17 -> 18 ;
19 [label="gini = 0.0\nsamples = 1\nvalue = [0, 1]", fillcolor="#399de5"] ;
17 -> 19 ;
20 [label="X[23] <= 0.5\ngini = 0.03\nsamples = 231\nvalue = [227, 4]", fillcolor="#e5833c"] ;
14 -> 20 ;
21 [label="X[17] <= 4.7\ngini = 0.03\nsamples = 216\nvalue = [213, 3]", fillcolor="#e5833c"] ;
20 -> 21 ;
22 [label="gini = 0.0\nsamples = 129\nvalue = [129, 0]", fillcolor="#e58139"] ;
21 -> 22 ;
23 [label="X[24] <= 4.5\ngini = 0.07\nsamples = 87\nvalue = [84, 3]", fillcolor="#e68640"] ;
21 -> 23 ;
24 [label="gini = 0.0\nsamples = 49\nvalue = [49, 0]", fillcolor="#e58139"] ;
23 -> 24 ;
25 [label="X[15] <= 50.5\ngini = 0.15\nsamples = 38\nvalue = [35, 3]", fillcolor="#e78c4a"] ;
23 -> 25 ;
26 [label="X[22] <= 2.5\ngini = 0.11\nsamples = 34\nvalue = [32, 2]", fillcolor="#e78945"] ;
25 -> 26 ;
27 [label="X[22] <= 0.5\ngini = 0.07\nsamples = 28\nvalue = [27, 1]", fillcolor="#e68640"] ;
26 -> 27 ;
28 [label="X[9] <= 33.0\ngini = 0.17\nsamples = 11\nvalue = [10, 1]", fillcolor="#e88e4d"] ;
27 -> 28 ;
29 [label="X[9] <= 31.0\ngini = 0.28\nsamples = 6\nvalue = [5, 1]", fillcolor="#ea9a61"] ;
28 -> 29 ;
30 [label="gini = 0.0\nsamples = 3\nvalue = [3, 0]", fillcolor="#e58139"] ;
29 -> 30 ;
31 [label="X[24] <= 4.83\ngini = 0.44\nsamples = 3\nvalue = [2, 1]", fillcolor="#f2c09c"] ;
29 -> 31 ;
32 [label="gini = 0.0\nsamples = 2\nvalue = [2, 0]", fillcolor="#e58139"] ;
31 -> 32 ;
33 [label="gini = 0.0\nsamples = 1\nvalue = [0, 1]", fillcolor="#399de5"] ;
31 -> 33 ;
34 [label="gini = 0.0\nsamples = 5\nvalue = [5, 0]", fillcolor="#e58139"] ;
28 -> 34 ;
35 [label="gini = 0.0\nsamples = 17\nvalue = [17, 0]", fillcolor="#e58139"] ;
27 -> 35 ;
36 [label="X[24] <= 4.83\ngini = 0.28\nsamples = 6\nvalue = [5, 1]", fillcolor="#ea9a61"] ;
26 -> 36 ;
37 [label="X[22] <= 3.5\ngini = 0.5\nsamples = 2\nvalue = [1, 1]", fillcolor="#ffffff"] ;
36 -> 37 ;
38 [label="gini = 0.0\nsamples = 1\nvalue = [0, 1]", fillcolor="#399de5"] ;
37 -> 38 ;
39 [label="gini = 0.0\nsamples = 1\nvalue = [1, 0]", fillcolor="#e58139"] ;
37 -> 39 ;
40 [label="gini = 0.0\nsamples = 4\nvalue = [4, 0]", fillcolor="#e58139"] ;
36 -> 40 ;
41 [label="X[21] <= 1.5\ngini = 0.38\nsamples = 4\nvalue = [3, 1]", fillcolor="#eeab7b"] ;
25 -> 41 ;
42 [label="gini = 0.0\nsamples = 3\nvalue = [3, 0]", fillcolor="#e58139"] ;
41 -> 42 ;
43 [label="gini = 0.0\nsamples = 1\nvalue = [0, 1]", fillcolor="#399de5"] ;
41 -> 43 ;
44 [label="X[17] <= 4.5\ngini = 0.12\nsamples = 15\nvalue = [14, 1]", fillcolor="#e78a47"] ;
20 -> 44 ;
45 [label="X[9] <= 31.0\ngini = 0.32\nsamples = 5\nvalue = [4, 1]", fillcolor="#eca06a"] ;
44 -> 45 ;
46 [label="X[22] <= 2.5\ngini = 0.5\nsamples = 2\nvalue = [1, 1]", fillcolor="#ffffff"] ;
45 -> 46 ;
47 [label="gini = 0.0\nsamples = 1\nvalue = [0, 1]", fillcolor="#399de5"] ;
46 -> 47 ;
48 [label="gini = 0.0\nsamples = 1\nvalue = [1, 0]", fillcolor="#e58139"] ;
46 -> 48 ;
49 [label="gini = 0.0\nsamples = 3\nvalue = [3, 0]", fillcolor="#e58139"] ;
45 -> 49 ;
50 [label="gini = 0.0\nsamples = 10\nvalue = [10, 0]", fillcolor="#e58139"] ;
44 -> 50 ;
51 [label="X[21] <= 1.5\ngini = 0.23\nsamples = 15\nvalue = [13, 2]", fillcolor="#e99457"] ;
13 -> 51 ;
52 [label="X[21] <= 0.5\ngini = 0.44\nsamples = 6\nvalue = [4, 2]", fillcolor="#f2c09c"] ;
51 -> 52 ;
53 [label="gini = 0.0\nsamples = 4\nvalue = [4, 0]", fillcolor="#e58139"] ;
52 -> 53 ;
54 [label="gini = 0.0\nsamples = 2\nvalue = [0, 2]", fillcolor="#399de5"] ;
52 -> 54 ;
55 [label="gini = 0.0\nsamples = 9\nvalue = [9, 0]", fillcolor="#e58139"] ;
51 -> 55 ;
56 [label="X[21] <= 4.5\ngini = 0.01\nsamples = 340\nvalue = [339, 1]", fillcolor="#e5813a"] ;
12 -> 56 ;
57 [label="gini = 0.0\nsamples = 324\nvalue = [324, 0]", fillcolor="#e58139"] ;
56 -> 57 ;
58 [label="X[17] <= 4.1\ngini = 0.12\nsamples = 16\nvalue = [15, 1]", fillcolor="#e78946"] ;
56 -> 58 ;
59 [label="X[22] <= 0.5\ngini = 0.44\nsamples = 3\nvalue = [2, 1]", fillcolor="#f2c09c"] ;
58 -> 59 ;
60 [label="gini = 0.0\nsamples = 1\nvalue = [0, 1]", fillcolor="#399de5"] ;
59 -> 60 ;
61 [label="gini = 0.0\nsamples = 2\nvalue = [2, 0]", fillcolor="#e58139"] ;
59 -> 61 ;
62 [label="gini = 0.0\nsamples = 13\nvalue = [13, 0]", fillcolor="#e58139"] ;
58 -> 62 ;
63 [label="X[21] <= 3.5\ngini = 0.09\nsamples = 60\nvalue = [57, 3]", fillcolor="#e68843"] ;
11 -> 63 ;
64 [label="X[2] <= 50.5\ngini = 0.04\nsamples = 51\nvalue = [50, 1]", fillcolor="#e6843d"] ;
63 -> 64 ;
65 [label="gini = 0.0\nsamples = 43\nvalue = [43, 0]", fillcolor="#e58139"] ;
64 -> 65 ;
66 [label="X[10] <= 27.0\ngini = 0.22\nsamples = 8\nvalue = [7, 1]", fillcolor="#e99355"] ;
64 -> 66 ;
67 [label="gini = 0.0\nsamples = 1\nvalue = [0, 1]", fillcolor="#399de5"] ;
66 -> 67 ;
68 [label="gini = 0.0\nsamples = 7\nvalue = [7, 0]", fillcolor="#e58139"] ;
66 -> 68 ;
69 [label="X[22] <= 3.5\ngini = 0.35\nsamples = 9\nvalue = [7, 2]", fillcolor="#eca572"] ;
63 -> 69 ;
70 [label="X[10] <= 29.5\ngini = 0.22\nsamples = 8\nvalue = [7, 1]", fillcolor="#e99355"] ;
69 -> 70 ;
71 [label="gini = 0.0\nsamples = 5\nvalue = [5, 0]", fillcolor="#e58139"] ;
70 -> 71 ;
72 [label="X[17] <= 4.6\ngini = 0.44\nsamples = 3\nvalue = [2, 1]", fillcolor="#f2c09c"] ;
70 -> 72 ;
73 [label="gini = 0.0\nsamples = 2\nvalue = [2, 0]", fillcolor="#e58139"] ;
72 -> 73 ;
74 [label="gini = 0.0\nsamples = 1\nvalue = [0, 1]", fillcolor="#399de5"] ;
72 -> 74 ;
75 [label="gini = 0.0\nsamples = 1\nvalue = [0, 1]", fillcolor="#399de5"] ;
69 -> 75 ;
76 [label="X[7] <= 50.5\ngini = 0.22\nsamples = 8\nvalue = [7, 1]", fillcolor="#e99355"] ;
10 -> 76 ;
77 [label="gini = 0.0\nsamples = 7\nvalue = [7, 0]", fillcolor="#e58139"] ;
76 -> 77 ;
78 [label="gini = 0.0\nsamples = 1\nvalue = [0, 1]", fillcolor="#399de5"] ;
76 -> 78 ;
79 [label="X[2] <= 52.5\ngini = 0.2\nsamples = 26\nvalue = [23, 3]", fillcolor="#e89153"] ;
9 -> 79 ;
80 [label="X[25] <= 2.5\ngini = 0.15\nsamples = 25\nvalue = [23, 2]", fillcolor="#e78c4a"] ;
79 -> 80 ;
81 [label="X[17] <= 4.7\ngini = 0.41\nsamples = 7\nvalue = [5, 2]", fillcolor="#efb388"] ;
80 -> 81 ;
82 [label="X[22] <= 0.5\ngini = 0.28\nsamples = 6\nvalue = [5, 1]", fillcolor="#ea9a61"] ;
81 -> 82 ;
83 [label="gini = 0.0\nsamples = 1\nvalue = [0, 1]", fillcolor="#399de5"] ;
82 -> 83 ;
84 [label="gini = 0.0\nsamples = 5\nvalue = [5, 0]", fillcolor="#e58139"] ;
82 -> 84 ;
85 [label="gini = 0.0\nsamples = 1\nvalue = [0, 1]", fillcolor="#399de5"] ;
81 -> 85 ;
86 [label="gini = 0.0\nsamples = 18\nvalue = [18, 0]", fillcolor="#e58139"] ;
80 -> 86 ;
87 [label="gini = 0.0\nsamples = 1\nvalue = [0, 1]", fillcolor="#399de5"] ;
79 -> 87 ;
88 [label="X[25] <= 4.5\ngini = 0.11\nsamples = 404\nvalue = [381, 23]", fillcolor="#e78945"] ;
8 -> 88 ;
89 [label="X[9] <= 31.0\ngini = 0.17\nsamples = 217\nvalue = [197, 20]", fillcolor="#e88e4d"] ;
88 -> 89 ;
90 [label="X[2] <= 52.5\ngini = 0.44\nsamples = 15\nvalue = [10, 5]", fillcolor="#f2c09c"] ;
89 -> 90 ;
91 [label="X[24] <= 4.67\ngini = 0.49\nsamples = 9\nvalue = [4, 5]", fillcolor="#d7ebfa"] ;
90 -> 91 ;
92 [label="gini = 0.0\nsamples = 4\nvalue = [0, 4]", fillcolor="#399de5"] ;
91 -> 92 ;
93 [label="X[0] <= 50.5\ngini = 0.32\nsamples = 5\nvalue = [4, 1]", fillcolor="#eca06a"] ;
91 -> 93 ;
94 [label="gini = 0.0\nsamples = 4\nvalue = [4, 0]", fillcolor="#e58139"] ;
93 -> 94 ;
95 [label="gini = 0.0\nsamples = 1\nvalue = [0, 1]", fillcolor="#399de5"] ;
93 -> 95 ;
96 [label="gini = 0.0\nsamples = 6\nvalue = [6, 0]", fillcolor="#e58139"] ;
90 -> 96 ;
97 [label="X[15] <= 53.5\ngini = 0.14\nsamples = 202\nvalue = [187, 15]", fillcolor="#e78b49"] ;
89 -> 97 ;
98 [label="X[5] <= 50.5\ngini = 0.13\nsamples = 201\nvalue = [187, 14]", fillcolor="#e78a48"] ;
97 -> 98 ;
99 [label="X[17] <= 4.3\ngini = 0.11\nsamples = 190\nvalue = [179, 11]", fillcolor="#e78945"] ;
98 -> 99 ;
100 [label="X[13] <= 53.5\ngini = 0.19\nsamples = 64\nvalue = [57, 7]", fillcolor="#e89051"] ;
99 -> 100 ;
101 [label="X[10] <= 32.5\ngini = 0.17\nsamples = 63\nvalue = [57, 6]", fillcolor="#e88e4e"] ;
100 -> 101 ;
102 [label="X[2] <= 51.5\ngini = 0.24\nsamples = 43\nvalue = [37, 6]", fillcolor="#e99559"] ;
101 -> 102 ;
103 [label="X[22] <= 1.5\ngini = 0.15\nsamples = 36\nvalue = [33, 3]", fillcolor="#e78c4b"] ;
102 -> 103 ;
104 [label="X[21] <= 3.5\ngini = 0.27\nsamples = 19\nvalue = [16, 3]", fillcolor="#ea995e"] ;
103 -> 104 ;
105 [label="X[24] <= 3.0\ngini = 0.12\nsamples = 16\nvalue = [15, 1]", fillcolor="#e78946"] ;
104 -> 105 ;
106 [label="X[8] <= 38.5\ngini = 0.5\nsamples = 2\nvalue = [1, 1]", fillcolor="#ffffff"] ;
105 -> 106 ;
107 [label="gini = 0.0\nsamples = 1\nvalue = [1, 0]", fillcolor="#e58139"] ;
106 -> 107 ;
108 [label="gini = 0.0\nsamples = 1\nvalue = [0, 1]", fillcolor="#399de5"] ;
106 -> 108 ;
109 [label="gini = 0.0\nsamples = 14\nvalue = [14, 0]", fillcolor="#e58139"] ;
105 -> 109 ;
110 [label="X[25] <= 2.0\ngini = 0.44\nsamples = 3\nvalue = [1, 2]", fillcolor="#9ccef2"] ;
104 -> 110 ;
111 [label="gini = 0.0\nsamples = 1\nvalue = [1, 0]", fillcolor="#e58139"] ;
110 -> 111 ;
112 [label="gini = 0.0\nsamples = 2\nvalue = [0, 2]", fillcolor="#399de5"] ;
110 -> 112 ;
113 [label="gini = 0.0\nsamples = 17\nvalue = [17, 0]", fillcolor="#e58139"] ;
103 -> 113 ;
114 [label="X[24] <= 4.17\ngini = 0.49\nsamples = 7\nvalue = [4, 3]", fillcolor="#f8e0ce"] ;
102 -> 114 ;
115 [label="X[15] <= 50.5\ngini = 0.32\nsamples = 5\nvalue = [4, 1]", fillcolor="#eca06a"] ;
114 -> 115 ;
116 [label="gini = 0.0\nsamples = 4\nvalue = [4, 0]", fillcolor="#e58139"] ;
115 -> 116 ;
117 [label="gini = 0.0\nsamples = 1\nvalue = [0, 1]", fillcolor="#399de5"] ;
115 -> 117 ;
118 [label="gini = 0.0\nsamples = 2\nvalue = [0, 2]", fillcolor="#399de5"] ;
114 -> 118 ;
119 [label="gini = 0.0\nsamples = 20\nvalue = [20, 0]", fillcolor="#e58139"] ;
101 -> 119 ;
120 [label="gini = 0.0\nsamples = 1\nvalue = [0, 1]", fillcolor="#399de5"] ;
100 -> 120 ;
121 [label="X[25] <= 2.5\ngini = 0.06\nsamples = 126\nvalue = [122, 4]", fillcolor="#e6853f"] ;
99 -> 121 ;
122 [label="X[22] <= 3.0\ngini = 0.24\nsamples = 14\nvalue = [12, 2]", fillcolor="#e9965a"] ;
121 -> 122 ;
123 [label="X[15] <= 51.5\ngini = 0.14\nsamples = 13\nvalue = [12, 1]", fillcolor="#e78c49"] ;
122 -> 123 ;
124 [label="gini = 0.0\nsamples = 11\nvalue = [11, 0]", fillcolor="#e58139"] ;
123 -> 124 ;
125 [label="X[12] <= 52.0\ngini = 0.5\nsamples = 2\nvalue = [1, 1]", fillcolor="#ffffff"] ;
123 -> 125 ;
126 [label="gini = 0.0\nsamples = 1\nvalue = [0, 1]", fillcolor="#399de5"] ;
125 -> 126 ;
127 [label="gini = 0.0\nsamples = 1\nvalue = [1, 0]", fillcolor="#e58139"] ;
125 -> 127 ;
128 [label="gini = 0.0\nsamples = 1\nvalue = [0, 1]", fillcolor="#399de5"] ;
122 -> 128 ;
129 [label="X[9] <= 33.0\ngini = 0.04\nsamples = 112\nvalue = [110, 2]", fillcolor="#e5833d"] ;
121 -> 129 ;
130 [label="X[21] <= 1.5\ngini = 0.1\nsamples = 38\nvalue = [36, 2]", fillcolor="#e68844"] ;
129 -> 130 ;
131 [label="gini = 0.0\nsamples = 23\nvalue = [23, 0]", fillcolor="#e58139"] ;
130 -> 131 ;
132 [label="X[3] <= 50.5\ngini = 0.23\nsamples = 15\nvalue = [13, 2]", fillcolor="#e99457"] ;
130 -> 132 ;
133 [label="X[21] <= 3.5\ngini = 0.38\nsamples = 8\nvalue = [6, 2]", fillcolor="#eeab7b"] ;
132 -> 133 ;
134 [label="X[11] <= 50.5\ngini = 0.48\nsamples = 5\nvalue = [3, 2]", fillcolor="#f6d5bd"] ;
133 -> 134 ;
135 [label="X[13] <= 50.5\ngini = 0.44\nsamples = 3\nvalue = [1, 2]", fillcolor="#9ccef2"] ;
134 -> 135 ;
136 [label="gini = 0.0\nsamples = 2\nvalue = [0, 2]", fillcolor="#399de5"] ;
135 -> 136 ;
137 [label="gini = 0.0\nsamples = 1\nvalue = [1, 0]", fillcolor="#e58139"] ;
135 -> 137 ;
138 [label="gini = 0.0\nsamples = 2\nvalue = [2, 0]", fillcolor="#e58139"] ;
134 -> 138 ;
139 [label="gini = 0.0\nsamples = 3\nvalue = [3, 0]", fillcolor="#e58139"] ;
133 -> 139 ;
140 [label="gini = 0.0\nsamples = 7\nvalue = [7, 0]", fillcolor="#e58139"] ;
132 -> 140 ;
141 [label="gini = 0.0\nsamples = 74\nvalue = [74, 0]", fillcolor="#e58139"] ;
129 -> 141 ;
142 [label="X[17] <= 4.7\ngini = 0.4\nsamples = 11\nvalue = [8, 3]", fillcolor="#efb083"] ;
98 -> 142 ;
143 [label="gini = 0.0\nsamples = 6\nvalue = [6, 0]", fillcolor="#e58139"] ;
142 -> 143 ;
144 [label="X[17] <= 4.9\ngini = 0.48\nsamples = 5\nvalue = [2, 3]", fillcolor="#bddef6"] ;
142 -> 144 ;
145 [label="gini = 0.0\nsamples = 3\nvalue = [0, 3]", fillcolor="#399de5"] ;
144 -> 145 ;
146 [label="gini = 0.0\nsamples = 2\nvalue = [2, 0]", fillcolor="#e58139"] ;
144 -> 146 ;
147 [label="gini = 0.0\nsamples = 1\nvalue = [0, 1]", fillcolor="#399de5"] ;
97 -> 147 ;
148 [label="X[1] <= 52.0\ngini = 0.03\nsamples = 187\nvalue = [184, 3]", fillcolor="#e5833c"] ;
88 -> 148 ;
149 [label="X[16] <= 50.5\ngini = 0.02\nsamples = 176\nvalue = [174, 2]", fillcolor="#e5823b"] ;
148 -> 149 ;
150 [label="X[22] <= 3.5\ngini = 0.01\nsamples = 163\nvalue = [162, 1]", fillcolor="#e5823a"] ;
149 -> 150 ;
151 [label="gini = 0.0\nsamples = 144\nvalue = [144, 0]", fillcolor="#e58139"] ;
150 -> 151 ;
152 [label="X[10] <= 31.5\ngini = 0.1\nsamples = 19\nvalue = [18, 1]", fillcolor="#e68844"] ;
150 -> 152 ;
153 [label="X[24] <= 4.83\ngini = 0.28\nsamples = 6\nvalue = [5, 1]", fillcolor="#ea9a61"] ;
152 -> 153 ;
154 [label="gini = 0.0\nsamples = 4\nvalue = [4, 0]", fillcolor="#e58139"] ;
153 -> 154 ;
155 [label="X[9] <= 35.0\ngini = 0.5\nsamples = 2\nvalue = [1, 1]", fillcolor="#ffffff"] ;
153 -> 155 ;
156 [label="gini = 0.0\nsamples = 1\nvalue = [0, 1]", fillcolor="#399de5"] ;
155 -> 156 ;
157 [label="gini = 0.0\nsamples = 1\nvalue = [1, 0]", fillcolor="#e58139"] ;
155 -> 157 ;
158 [label="gini = 0.0\nsamples = 13\nvalue = [13, 0]", fillcolor="#e58139"] ;
152 -> 158 ;
159 [label="X[15] <= 50.5\ngini = 0.14\nsamples = 13\nvalue = [12, 1]", fillcolor="#e78c49"] ;
149 -> 159 ;
160 [label="gini = 0.0\nsamples = 11\nvalue = [11, 0]", fillcolor="#e58139"] ;
159 -> 160 ;
161 [label="X[8] <= 36.0\ngini = 0.5\nsamples = 2\nvalue = [1, 1]", fillcolor="#ffffff"] ;
159 -> 161 ;
162 [label="gini = 0.0\nsamples = 1\nvalue = [1, 0]", fillcolor="#e58139"] ;
161 -> 162 ;
163 [label="gini = 0.0\nsamples = 1\nvalue = [0, 1]", fillcolor="#399de5"] ;
161 -> 163 ;
164 [label="X[24] <= 3.67\ngini = 0.17\nsamples = 11\nvalue = [10, 1]", fillcolor="#e88e4d"] ;
148 -> 164 ;
165 [label="gini = 0.0\nsamples = 1\nvalue = [0, 1]", fillcolor="#399de5"] ;
164 -> 165 ;
166 [label="gini = 0.0\nsamples = 10\nvalue = [10, 0]", fillcolor="#e58139"] ;
164 -> 166 ;
167 [label="X[7] <= 50.5\ngini = 0.38\nsamples = 12\nvalue = [9, 3]", fillcolor="#eeab7b"] ;
7 -> 167 ;
168 [label="X[25] <= 2.5\ngini = 0.3\nsamples = 11\nvalue = [9, 2]", fillcolor="#eb9d65"] ;
167 -> 168 ;
169 [label="gini = 0.0\nsamples = 1\nvalue = [0, 1]", fillcolor="#399de5"] ;
168 -> 169 ;
170 [label="X[17] <= 4.8\ngini = 0.18\nsamples = 10\nvalue = [9, 1]", fillcolor="#e88f4f"] ;
168 -> 170 ;
171 [label="gini = 0.0\nsamples = 7\nvalue = [7, 0]", fillcolor="#e58139"] ;
170 -> 171 ;
172 [label="X[8] <= 35.5\ngini = 0.44\nsamples = 3\nvalue = [2, 1]", fillcolor="#f2c09c"] ;
170 -> 172 ;
173 [label="gini = 0.0\nsamples = 1\nvalue = [1, 0]", fillcolor="#e58139"] ;
172 -> 173 ;
174 [label="X[21] <= 3.0\ngini = 0.5\nsamples = 2\nvalue = [1, 1]", fillcolor="#ffffff"] ;
172 -> 174 ;
175 [label="gini = 0.0\nsamples = 1\nvalue = [0, 1]", fillcolor="#399de5"] ;
174 -> 175 ;
176 [label="gini = 0.0\nsamples = 1\nvalue = [1, 0]", fillcolor="#e58139"] ;
174 -> 176 ;
177 [label="gini = 0.0\nsamples = 1\nvalue = [0, 1]", fillcolor="#399de5"] ;
167 -> 177 ;
178 [label="X[14] <= 50.5\ngini = 0.38\nsamples = 16\nvalue = [12, 4]", fillcolor="#eeab7b"] ;
6 -> 178 ;
179 [label="X[22] <= 0.5\ngini = 0.32\nsamples = 15\nvalue = [12, 3]", fillcolor="#eca06a"] ;
178 -> 179 ;
180 [label="X[8] <= 41.5\ngini = 0.47\nsamples = 8\nvalue = [5, 3]", fillcolor="#f5cdb0"] ;
179 -> 180 ;
181 [label="X[17] <= 4.4\ngini = 0.48\nsamples = 5\nvalue = [2, 3]", fillcolor="#bddef6"] ;
180 -> 181 ;
182 [label="X[8] <= 36.5\ngini = 0.44\nsamples = 3\nvalue = [2, 1]", fillcolor="#f2c09c"] ;
181 -> 182 ;
183 [label="gini = 0.0\nsamples = 1\nvalue = [1, 0]", fillcolor="#e58139"] ;
182 -> 183 ;
184 [label="X[21] <= 0.5\ngini = 0.5\nsamples = 2\nvalue = [1, 1]", fillcolor="#ffffff"] ;
182 -> 184 ;
185 [label="gini = 0.0\nsamples = 1\nvalue = [1, 0]", fillcolor="#e58139"] ;
184 -> 185 ;
186 [label="gini = 0.0\nsamples = 1\nvalue = [0, 1]", fillcolor="#399de5"] ;
184 -> 186 ;
187 [label="gini = 0.0\nsamples = 2\nvalue = [0, 2]", fillcolor="#399de5"] ;
181 -> 187 ;
188 [label="gini = 0.0\nsamples = 3\nvalue = [3, 0]", fillcolor="#e58139"] ;
180 -> 188 ;
189 [label="gini = 0.0\nsamples = 7\nvalue = [7, 0]", fillcolor="#e58139"] ;
179 -> 189 ;
190 [label="gini = 0.0\nsamples = 1\nvalue = [0, 1]", fillcolor="#399de5"] ;
178 -> 190 ;
191 [label="X[24] <= 2.83\ngini = 0.19\nsamples = 710\nvalue = [633, 77]", fillcolor="#e89051"] ;
5 -> 191 ;
192 [label="X[1] <= 53.5\ngini = 0.38\nsamples = 72\nvalue = [54, 18]", fillcolor="#eeab7b"] ;
191 -> 192 ;
193 [label="X[2] <= 64.0\ngini = 0.33\nsamples = 67\nvalue = [53, 14]", fillcolor="#eca26d"] ;
192 -> 193 ;
194 [label="X[11] <= 55.5\ngini = 0.3\nsamples = 65\nvalue = [53, 12]", fillcolor="#eb9e66"] ;
193 -> 194 ;
195 [label="X[0] <= 55.0\ngini = 0.22\nsamples = 56\nvalue = [49, 7]", fillcolor="#e99355"] ;
194 -> 195 ;
196 [label="X[16] <= 52.0\ngini = 0.19\nsamples = 55\nvalue = [49, 6]", fillcolor="#e89051"] ;
195 -> 196 ;
197 [label="X[22] <= 0.5\ngini = 0.17\nsamples = 54\nvalue = [49, 5]", fillcolor="#e88e4d"] ;
196 -> 197 ;
198 [label="X[11] <= 50.5\ngini = 0.4\nsamples = 11\nvalue = [8, 3]", fillcolor="#efb083"] ;
197 -> 198 ;
199 [label="X[9] <= 39.5\ngini = 0.48\nsamples = 5\nvalue = [2, 3]", fillcolor="#bddef6"] ;
198 -> 199 ;
200 [label="gini = 0.0\nsamples = 3\nvalue = [0, 3]", fillcolor="#399de5"] ;
199 -> 200 ;
201 [label="gini = 0.0\nsamples = 2\nvalue = [2, 0]", fillcolor="#e58139"] ;
199 -> 201 ;
202 [label="gini = 0.0\nsamples = 6\nvalue = [6, 0]", fillcolor="#e58139"] ;
198 -> 202 ;
203 [label="X[9] <= 31.0\ngini = 0.09\nsamples = 43\nvalue = [41, 2]", fillcolor="#e68743"] ;
197 -> 203 ;
204 [label="X[2] <= 55.0\ngini = 0.5\nsamples = 2\nvalue = [1, 1]", fillcolor="#ffffff"] ;
203 -> 204 ;
205 [label="gini = 0.0\nsamples = 1\nvalue = [0, 1]", fillcolor="#399de5"] ;
204 -> 205 ;
206 [label="gini = 0.0\nsamples = 1\nvalue = [1, 0]", fillcolor="#e58139"] ;
204 -> 206 ;
207 [label="X[5] <= 50.5\ngini = 0.05\nsamples = 41\nvalue = [40, 1]", fillcolor="#e6843e"] ;
203 -> 207 ;
208 [label="gini = 0.0\nsamples = 36\nvalue = [36, 0]", fillcolor="#e58139"] ;
207 -> 208 ;
209 [label="X[8] <= 44.5\ngini = 0.32\nsamples = 5\nvalue = [4, 1]", fillcolor="#eca06a"] ;
207 -> 209 ;
210 [label="gini = 0.0\nsamples = 1\nvalue = [0, 1]", fillcolor="#399de5"] ;
209 -> 210 ;
211 [label="gini = 0.0\nsamples = 4\nvalue = [4, 0]", fillcolor="#e58139"] ;
209 -> 211 ;
212 [label="gini = 0.0\nsamples = 1\nvalue = [0, 1]", fillcolor="#399de5"] ;
196 -> 212 ;
213 [label="gini = 0.0\nsamples = 1\nvalue = [0, 1]", fillcolor="#399de5"] ;
195 -> 213 ;
214 [label="X[9] <= 33.0\ngini = 0.49\nsamples = 9\nvalue = [4, 5]", fillcolor="#d7ebfa"] ;
194 -> 214 ;
215 [label="gini = 0.0\nsamples = 3\nvalue = [3, 0]", fillcolor="#e58139"] ;
214 -> 215 ;
216 [label="X[3] <= 54.5\ngini = 0.28\nsamples = 6\nvalue = [1, 5]", fillcolor="#61b1ea"] ;
214 -> 216 ;
217 [label="gini = 0.0\nsamples = 5\nvalue = [0, 5]", fillcolor="#399de5"] ;
216 -> 217 ;
218 [label="gini = 0.0\nsamples = 1\nvalue = [1, 0]", fillcolor="#e58139"] ;
216 -> 218 ;
219 [label="gini = 0.0\nsamples = 2\nvalue = [0, 2]", fillcolor="#399de5"] ;
193 -> 219 ;
220 [label="X[3] <= 50.5\ngini = 0.32\nsamples = 5\nvalue = [1, 4]", fillcolor="#6ab6ec"] ;
192 -> 220 ;
221 [label="gini = 0.0\nsamples = 1\nvalue = [1, 0]", fillcolor="#e58139"] ;
220 -> 221 ;
222 [label="gini = 0.0\nsamples = 4\nvalue = [0, 4]", fillcolor="#399de5"] ;
220 -> 222 ;
223 [label="X[25] <= 2.5\ngini = 0.17\nsamples = 638\nvalue = [579, 59]", fillcolor="#e88e4d"] ;
191 -> 223 ;
224 [label="X[1] <= 52.0\ngini = 0.4\nsamples = 33\nvalue = [24, 9]", fillcolor="#efb083"] ;
223 -> 224 ;
225 [label="X[11] <= 55.5\ngini = 0.25\nsamples = 27\nvalue = [23, 4]", fillcolor="#ea975b"] ;
224 -> 225 ;
226 [label="X[24] <= 3.17\ngini = 0.15\nsamples = 25\nvalue = [23, 2]", fillcolor="#e78c4a"] ;
225 -> 226 ;
227 [label="X[2] <= 55.0\ngini = 0.5\nsamples = 2\nvalue = [1, 1]", fillcolor="#ffffff"] ;
226 -> 227 ;
228 [label="gini = 0.0\nsamples = 1\nvalue = [1, 0]", fillcolor="#e58139"] ;
227 -> 228 ;
229 [label="gini = 0.0\nsamples = 1\nvalue = [0, 1]", fillcolor="#399de5"] ;
227 -> 229 ;
230 [label="X[17] <= 3.4\ngini = 0.08\nsamples = 23\nvalue = [22, 1]", fillcolor="#e68742"] ;
226 -> 230 ;
231 [label="X[12] <= 51.0\ngini = 0.44\nsamples = 3\nvalue = [2, 1]", fillcolor="#f2c09c"] ;
230 -> 231 ;
232 [label="gini = 0.0\nsamples = 2\nvalue = [2, 0]", fillcolor="#e58139"] ;
231 -> 232 ;
233 [label="gini = 0.0\nsamples = 1\nvalue = [0, 1]", fillcolor="#399de5"] ;
231 -> 233 ;
234 [label="gini = 0.0\nsamples = 20\nvalue = [20, 0]", fillcolor="#e58139"] ;
230 -> 234 ;
235 [label="gini = 0.0\nsamples = 2\nvalue = [0, 2]", fillcolor="#399de5"] ;
225 -> 235 ;
236 [label="X[10] <= 38.5\ngini = 0.28\nsamples = 6\nvalue = [1, 5]", fillcolor="#61b1ea"] ;
224 -> 236 ;
237 [label="X[3] <= 50.5\ngini = 0.5\nsamples = 2\nvalue = [1, 1]", fillcolor="#ffffff"] ;
236 -> 237 ;
238 [label="gini = 0.0\nsamples = 1\nvalue = [0, 1]", fillcolor="#399de5"] ;
237 -> 238 ;
239 [label="gini = 0.0\nsamples = 1\nvalue = [1, 0]", fillcolor="#e58139"] ;
237 -> 239 ;
240 [label="gini = 0.0\nsamples = 4\nvalue = [0, 4]", fillcolor="#399de5"] ;
236 -> 240 ;
241 [label="X[15] <= 56.5\ngini = 0.15\nsamples = 605\nvalue = [555, 50]", fillcolor="#e78c4b"] ;
223 -> 241 ;
242 [label="X[17] <= 2.2\ngini = 0.15\nsamples = 604\nvalue = [555, 49]", fillcolor="#e78c4a"] ;
241 -> 242 ;
243 [label="gini = 0.0\nsamples = 1\nvalue = [0, 1]", fillcolor="#399de5"] ;
242 -> 243 ;
244 [label="X[23] <= 0.5\ngini = 0.15\nsamples = 603\nvalue = [555, 48]", fillcolor="#e78c4a"] ;
242 -> 244 ;
245 [label="X[12] <= 65.0\ngini = 0.13\nsamples = 532\nvalue = [496, 36]", fillcolor="#e78a47"] ;
244 -> 245 ;
246 [label="X[4] <= 57.5\ngini = 0.12\nsamples = 529\nvalue = [495, 34]", fillcolor="#e78a47"] ;
245 -> 246 ;
247 [label="X[10] <= 36.5\ngini = 0.11\nsamples = 509\nvalue = [480, 29]", fillcolor="#e78945"] ;
246 -> 247 ;
248 [label="X[8] <= 41.5\ngini = 0.18\nsamples = 131\nvalue = [118, 13]", fillcolor="#e88f4f"] ;
247 -> 248 ;
249 [label="X[1] <= 50.5\ngini = 0.04\nsamples = 50\nvalue = [49, 1]", fillcolor="#e6843d"] ;
248 -> 249 ;
250 [label="gini = 0.0\nsamples = 38\nvalue = [38, 0]", fillcolor="#e58139"] ;
249 -> 250 ;
251 [label="X[17] <= 4.2\ngini = 0.15\nsamples = 12\nvalue = [11, 1]", fillcolor="#e78c4b"] ;
249 -> 251 ;
252 [label="X[10] <= 35.5\ngini = 0.32\nsamples = 5\nvalue = [4, 1]", fillcolor="#eca06a"] ;
251 -> 252 ;
253 [label="gini = 0.0\nsamples = 4\nvalue = [4, 0]", fillcolor="#e58139"] ;
252 -> 253 ;
254 [label="gini = 0.0\nsamples = 1\nvalue = [0, 1]", fillcolor="#399de5"] ;
252 -> 254 ;
255 [label="gini = 0.0\nsamples = 7\nvalue = [7, 0]", fillcolor="#e58139"] ;
251 -> 255 ;
256 [label="X[8] <= 42.5\ngini = 0.25\nsamples = 81\nvalue = [69, 12]", fillcolor="#ea975b"] ;
248 -> 256 ;
257 [label="gini = 0.0\nsamples = 2\nvalue = [0, 2]", fillcolor="#399de5"] ;
256 -> 257 ;
258 [label="X[8] <= 44.5\ngini = 0.22\nsamples = 79\nvalue = [69, 10]", fillcolor="#e99356"] ;
256 -> 258 ;
259 [label="X[22] <= 1.5\ngini = 0.39\nsamples = 26\nvalue = [19, 7]", fillcolor="#efaf82"] ;
258 -> 259 ;
260 [label="X[6] <= 53.0\ngini = 0.14\nsamples = 13\nvalue = [12, 1]", fillcolor="#e78c49"] ;
259 -> 260 ;
261 [label="gini = 0.0\nsamples = 12\nvalue = [12, 0]", fillcolor="#e58139"] ;
260 -> 261 ;
262 [label="gini = 0.0\nsamples = 1\nvalue = [0, 1]", fillcolor="#399de5"] ;
260 -> 262 ;
263 [label="X[1] <= 50.5\ngini = 0.5\nsamples = 13\nvalue = [7, 6]", fillcolor="#fbede3"] ;
259 -> 263 ;
264 [label="X[8] <= 43.5\ngini = 0.35\nsamples = 9\nvalue = [7, 2]", fillcolor="#eca572"] ;
263 -> 264 ;
265 [label="X[22] <= 2.5\ngini = 0.22\nsamples = 8\nvalue = [7, 1]", fillcolor="#e99355"] ;
264 -> 265 ;
266 [label="gini = 0.0\nsamples = 1\nvalue = [0, 1]", fillcolor="#399de5"] ;
265 -> 266 ;
267 [label="gini = 0.0\nsamples = 7\nvalue = [7, 0]", fillcolor="#e58139"] ;
265 -> 267 ;
268 [label="gini = 0.0\nsamples = 1\nvalue = [0, 1]", fillcolor="#399de5"] ;
264 -> 268 ;
269 [label="gini = 0.0\nsamples = 4\nvalue = [0, 4]", fillcolor="#399de5"] ;
263 -> 269 ;
270 [label="X[5] <= 50.5\ngini = 0.11\nsamples = 53\nvalue = [50, 3]", fillcolor="#e78945"] ;
258 -> 270 ;
271 [label="X[11] <= 50.5\ngini = 0.08\nsamples = 51\nvalue = [49, 2]", fillcolor="#e68641"] ;
270 -> 271 ;
272 [label="gini = 0.0\nsamples = 39\nvalue = [39, 0]", fillcolor="#e58139"] ;
271 -> 272 ;
273 [label="X[3] <= 50.5\ngini = 0.28\nsamples = 12\nvalue = [10, 2]", fillcolor="#ea9a61"] ;
271 -> 273 ;
274 [label="X[4] <= 50.5\ngini = 0.17\nsamples = 11\nvalue = [10, 1]", fillcolor="#e88e4d"] ;
273 -> 274 ;
275 [label="gini = 0.0\nsamples = 9\nvalue = [9, 0]", fillcolor="#e58139"] ;
274 -> 275 ;
276 [label="X[11] <= 53.0\ngini = 0.5\nsamples = 2\nvalue = [1, 1]", fillcolor="#ffffff"] ;
274 -> 276 ;
277 [label="gini = 0.0\nsamples = 1\nvalue = [0, 1]", fillcolor="#399de5"] ;
276 -> 277 ;
278 [label="gini = 0.0\nsamples = 1\nvalue = [1, 0]", fillcolor="#e58139"] ;
276 -> 278 ;
279 [label="gini = 0.0\nsamples = 1\nvalue = [0, 1]", fillcolor="#399de5"] ;
273 -> 279 ;
280 [label="X[24] <= 4.83\ngini = 0.5\nsamples = 2\nvalue = [1, 1]", fillcolor="#ffffff"] ;
270 -> 280 ;
281 [label="gini = 0.0\nsamples = 1\nvalue = [0, 1]", fillcolor="#399de5"] ;
280 -> 281 ;
282 [label="gini = 0.0\nsamples = 1\nvalue = [1, 0]", fillcolor="#e58139"] ;
280 -> 282 ;
283 [label="X[4] <= 52.5\ngini = 0.08\nsamples = 378\nvalue = [362, 16]", fillcolor="#e68742"] ;
247 -> 283 ;
284 [label="X[3] <= 54.5\ngini = 0.04\nsamples = 282\nvalue = [276, 6]", fillcolor="#e6843d"] ;
283 -> 284 ;
285 [label="X[10] <= 42.5\ngini = 0.03\nsamples = 267\nvalue = [263, 4]", fillcolor="#e5833c"] ;
284 -> 285 ;
286 [label="X[2] <= 50.5\ngini = 0.01\nsamples = 217\nvalue = [216, 1]", fillcolor="#e5823a"] ;
285 -> 286 ;
287 [label="X[9] <= 35.0\ngini = 0.07\nsamples = 26\nvalue = [25, 1]", fillcolor="#e68641"] ;
286 -> 287 ;
288 [label="X[1] <= 50.5\ngini = 0.44\nsamples = 3\nvalue = [2, 1]", fillcolor="#f2c09c"] ;
287 -> 288 ;
289 [label="gini = 0.0\nsamples = 1\nvalue = [0, 1]", fillcolor="#399de5"] ;
288 -> 289 ;
290 [label="gini = 0.0\nsamples = 2\nvalue = [2, 0]", fillcolor="#e58139"] ;
288 -> 290 ;
291 [label="gini = 0.0\nsamples = 23\nvalue = [23, 0]", fillcolor="#e58139"] ;
287 -> 291 ;
292 [label="gini = 0.0\nsamples = 191\nvalue = [191, 0]", fillcolor="#e58139"] ;
286 -> 292 ;
293 [label="X[0] <= 54.0\ngini = 0.11\nsamples = 50\nvalue = [47, 3]", fillcolor="#e78946"] ;
285 -> 293 ;
294 [label="X[24] <= 4.33\ngini = 0.21\nsamples = 25\nvalue = [22, 3]", fillcolor="#e99254"] ;
293 -> 294 ;
295 [label="X[2] <= 51.5\ngini = 0.1\nsamples = 19\nvalue = [18, 1]", fillcolor="#e68844"] ;
294 -> 295 ;
296 [label="X[21] <= 1.0\ngini = 0.44\nsamples = 3\nvalue = [2, 1]", fillcolor="#f2c09c"] ;
295 -> 296 ;
297 [label="gini = 0.0\nsamples = 1\nvalue = [1, 0]", fillcolor="#e58139"] ;
296 -> 297 ;
298 [label="X[21] <= 2.5\ngini = 0.5\nsamples = 2\nvalue = [1, 1]", fillcolor="#ffffff"] ;
296 -> 298 ;
299 [label="gini = 0.0\nsamples = 1\nvalue = [0, 1]", fillcolor="#399de5"] ;
298 -> 299 ;
300 [label="gini = 0.0\nsamples = 1\nvalue = [1, 0]", fillcolor="#e58139"] ;
298 -> 300 ;
301 [label="gini = 0.0\nsamples = 16\nvalue = [16, 0]", fillcolor="#e58139"] ;
295 -> 301 ;
302 [label="X[11] <= 51.0\ngini = 0.44\nsamples = 6\nvalue = [4, 2]", fillcolor="#f2c09c"] ;
294 -> 302 ;
303 [label="X[1] <= 50.5\ngini = 0.44\nsamples = 3\nvalue = [1, 2]", fillcolor="#9ccef2"] ;
302 -> 303 ;
304 [label="gini = 0.0\nsamples = 1\nvalue = [1, 0]", fillcolor="#e58139"] ;
303 -> 304 ;
305 [label="gini = 0.0\nsamples = 2\nvalue = [0, 2]", fillcolor="#399de5"] ;
303 -> 305 ;
306 [label="gini = 0.0\nsamples = 3\nvalue = [3, 0]", fillcolor="#e58139"] ;
302 -> 306 ;
307 [label="gini = 0.0\nsamples = 25\nvalue = [25, 0]", fillcolor="#e58139"] ;
293 -> 307 ;
308 [label="X[7] <= 50.5\ngini = 0.23\nsamples = 15\nvalue = [13, 2]", fillcolor="#e99457"] ;
284 -> 308 ;
309 [label="X[22] <= 4.5\ngini = 0.13\nsamples = 14\nvalue = [13, 1]", fillcolor="#e78b48"] ;
308 -> 309 ;
310 [label="gini = 0.0\nsamples = 12\nvalue = [12, 0]", fillcolor="#e58139"] ;
309 -> 310 ;
311 [label="X[11] <= 50.5\ngini = 0.5\nsamples = 2\nvalue = [1, 1]", fillcolor="#ffffff"] ;
309 -> 311 ;
312 [label="gini = 0.0\nsamples = 1\nvalue = [1, 0]", fillcolor="#e58139"] ;
311 -> 312 ;
313 [label="gini = 0.0\nsamples = 1\nvalue = [0, 1]", fillcolor="#399de5"] ;
311 -> 313 ;
314 [label="gini = 0.0\nsamples = 1\nvalue = [0, 1]", fillcolor="#399de5"] ;
308 -> 314 ;
315 [label="X[2] <= 64.5\ngini = 0.19\nsamples = 96\nvalue = [86, 10]", fillcolor="#e89050"] ;
283 -> 315 ;
316 [label="X[15] <= 51.5\ngini = 0.17\nsamples = 95\nvalue = [86, 9]", fillcolor="#e88e4e"] ;
315 -> 316 ;
317 [label="X[3] <= 56.5\ngini = 0.13\nsamples = 88\nvalue = [82, 6]", fillcolor="#e78a47"] ;
316 -> 317 ;
318 [label="X[2] <= 56.5\ngini = 0.11\nsamples = 86\nvalue = [81, 5]", fillcolor="#e78945"] ;
317 -> 318 ;
319 [label="X[1] <= 50.5\ngini = 0.06\nsamples = 66\nvalue = [64, 2]", fillcolor="#e6853f"] ;
318 -> 319 ;
320 [label="X[3] <= 50.5\ngini = 0.15\nsamples = 25\nvalue = [23, 2]", fillcolor="#e78c4a"] ;
319 -> 320 ;
321 [label="gini = 0.0\nsamples = 17\nvalue = [17, 0]", fillcolor="#e58139"] ;
320 -> 321 ;
322 [label="X[21] <= 1.5\ngini = 0.38\nsamples = 8\nvalue = [6, 2]", fillcolor="#eeab7b"] ;
320 -> 322 ;
323 [label="gini = 0.0\nsamples = 5\nvalue = [5, 0]", fillcolor="#e58139"] ;
322 -> 323 ;
324 [label="X[0] <= 50.5\ngini = 0.44\nsamples = 3\nvalue = [1, 2]", fillcolor="#9ccef2"] ;
322 -> 324 ;
325 [label="gini = 0.0\nsamples = 1\nvalue = [1, 0]", fillcolor="#e58139"] ;
324 -> 325 ;
326 [label="gini = 0.0\nsamples = 2\nvalue = [0, 2]", fillcolor="#399de5"] ;
324 -> 326 ;
327 [label="gini = 0.0\nsamples = 41\nvalue = [41, 0]", fillcolor="#e58139"] ;
319 -> 327 ;
328 [label="X[17] <= 4.1\ngini = 0.26\nsamples = 20\nvalue = [17, 3]", fillcolor="#ea975c"] ;
318 -> 328 ;
329 [label="X[13] <= 50.5\ngini = 0.48\nsamples = 5\nvalue = [3, 2]", fillcolor="#f6d5bd"] ;
328 -> 329 ;
330 [label="gini = 0.0\nsamples = 2\nvalue = [0, 2]", fillcolor="#399de5"] ;
329 -> 330 ;
331 [label="gini = 0.0\nsamples = 3\nvalue = [3, 0]", fillcolor="#e58139"] ;
329 -> 331 ;
332 [label="X[7] <= 50.5\ngini = 0.12\nsamples = 15\nvalue = [14, 1]", fillcolor="#e78a47"] ;
328 -> 332 ;
333 [label="gini = 0.0\nsamples = 13\nvalue = [13, 0]", fillcolor="#e58139"] ;
332 -> 333 ;
334 [label="X[14] <= 51.0\ngini = 0.5\nsamples = 2\nvalue = [1, 1]", fillcolor="#ffffff"] ;
332 -> 334 ;
335 [label="gini = 0.0\nsamples = 1\nvalue = [0, 1]", fillcolor="#399de5"] ;
334 -> 335 ;
336 [label="gini = 0.0\nsamples = 1\nvalue = [1, 0]", fillcolor="#e58139"] ;
334 -> 336 ;
337 [label="X[13] <= 50.5\ngini = 0.5\nsamples = 2\nvalue = [1, 1]", fillcolor="#ffffff"] ;
317 -> 337 ;
338 [label="gini = 0.0\nsamples = 1\nvalue = [0, 1]", fillcolor="#399de5"] ;
337 -> 338 ;
339 [label="gini = 0.0\nsamples = 1\nvalue = [1, 0]", fillcolor="#e58139"] ;
337 -> 339 ;
340 [label="X[25] <= 4.0\ngini = 0.49\nsamples = 7\nvalue = [4, 3]", fillcolor="#f8e0ce"] ;
316 -> 340 ;
341 [label="gini = 0.0\nsamples = 2\nvalue = [2, 0]", fillcolor="#e58139"] ;
340 -> 341 ;
342 [label="X[5] <= 50.5\ngini = 0.48\nsamples = 5\nvalue = [2, 3]", fillcolor="#bddef6"] ;
340 -> 342 ;
343 [label="X[21] <= 3.0\ngini = 0.44\nsamples = 3\nvalue = [2, 1]", fillcolor="#f2c09c"] ;
342 -> 343 ;
344 [label="gini = 0.0\nsamples = 2\nvalue = [2, 0]", fillcolor="#e58139"] ;
343 -> 344 ;
345 [label="gini = 0.0\nsamples = 1\nvalue = [0, 1]", fillcolor="#399de5"] ;
343 -> 345 ;
346 [label="gini = 0.0\nsamples = 2\nvalue = [0, 2]", fillcolor="#399de5"] ;
342 -> 346 ;
347 [label="gini = 0.0\nsamples = 1\nvalue = [0, 1]", fillcolor="#399de5"] ;
315 -> 347 ;
348 [label="X[25] <= 4.5\ngini = 0.38\nsamples = 20\nvalue = [15, 5]", fillcolor="#eeab7b"] ;
246 -> 348 ;
349 [label="X[11] <= 56.0\ngini = 0.13\nsamples = 14\nvalue = [13, 1]", fillcolor="#e78b48"] ;
348 -> 349 ;
350 [label="gini = 0.0\nsamples = 12\nvalue = [12, 0]", fillcolor="#e58139"] ;
349 -> 350 ;
351 [label="X[11] <= 58.0\ngini = 0.5\nsamples = 2\nvalue = [1, 1]", fillcolor="#ffffff"] ;
349 -> 351 ;
352 [label="gini = 0.0\nsamples = 1\nvalue = [0, 1]", fillcolor="#399de5"] ;
351 -> 352 ;
353 [label="gini = 0.0\nsamples = 1\nvalue = [1, 0]", fillcolor="#e58139"] ;
351 -> 353 ;
354 [label="X[11] <= 51.5\ngini = 0.44\nsamples = 6\nvalue = [2, 4]", fillcolor="#9ccef2"] ;
348 -> 354 ;
355 [label="gini = 0.0\nsamples = 2\nvalue = [2, 0]", fillcolor="#e58139"] ;
354 -> 355 ;
356 [label="gini = 0.0\nsamples = 4\nvalue = [0, 4]", fillcolor="#399de5"] ;
354 -> 356 ;
357 [label="X[12] <= 68.5\ngini = 0.44\nsamples = 3\nvalue = [1, 2]", fillcolor="#9ccef2"] ;
245 -> 357 ;
358 [label="gini = 0.0\nsamples = 2\nvalue = [0, 2]", fillcolor="#399de5"] ;
357 -> 358 ;
359 [label="gini = 0.0\nsamples = 1\nvalue = [1, 0]", fillcolor="#e58139"] ;
357 -> 359 ;
360 [label="X[13] <= 50.5\ngini = 0.28\nsamples = 71\nvalue = [59, 12]", fillcolor="#ea9b61"] ;
244 -> 360 ;
361 [label="X[21] <= 2.5\ngini = 0.14\nsamples = 41\nvalue = [38, 3]", fillcolor="#e78b49"] ;
360 -> 361 ;
362 [label="gini = 0.0\nsamples = 27\nvalue = [27, 0]", fillcolor="#e58139"] ;
361 -> 362 ;
363 [label="X[14] <= 51.5\ngini = 0.34\nsamples = 14\nvalue = [11, 3]", fillcolor="#eca36f"] ;
361 -> 363 ;
364 [label="X[0] <= 50.5\ngini = 0.26\nsamples = 13\nvalue = [11, 2]", fillcolor="#ea985d"] ;
363 -> 364 ;
365 [label="gini = 0.0\nsamples = 6\nvalue = [6, 0]", fillcolor="#e58139"] ;
364 -> 365 ;
366 [label="X[17] <= 4.5\ngini = 0.41\nsamples = 7\nvalue = [5, 2]", fillcolor="#efb388"] ;
364 -> 366 ;
367 [label="X[12] <= 63.0\ngini = 0.44\nsamples = 3\nvalue = [1, 2]", fillcolor="#9ccef2"] ;
366 -> 367 ;
368 [label="gini = 0.0\nsamples = 2\nvalue = [0, 2]", fillcolor="#399de5"] ;
367 -> 368 ;
369 [label="gini = 0.0\nsamples = 1\nvalue = [1, 0]", fillcolor="#e58139"] ;
367 -> 369 ;
370 [label="gini = 0.0\nsamples = 4\nvalue = [4, 0]", fillcolor="#e58139"] ;
366 -> 370 ;
371 [label="gini = 0.0\nsamples = 1\nvalue = [0, 1]", fillcolor="#399de5"] ;
363 -> 371 ;
372 [label="X[6] <= 51.5\ngini = 0.42\nsamples = 30\nvalue = [21, 9]", fillcolor="#f0b78e"] ;
360 -> 372 ;
373 [label="X[1] <= 50.5\ngini = 0.38\nsamples = 28\nvalue = [21, 7]", fillcolor="#eeab7b"] ;
372 -> 373 ;
374 [label="gini = 0.0\nsamples = 10\nvalue = [10, 0]", fillcolor="#e58139"] ;
373 -> 374 ;
375 [label="X[4] <= 52.5\ngini = 0.48\nsamples = 18\nvalue = [11, 7]", fillcolor="#f6d1b7"] ;
373 -> 375 ;
376 [label="X[21] <= 0.5\ngini = 0.5\nsamples = 14\nvalue = [7, 7]", fillcolor="#ffffff"] ;
375 -> 376 ;
377 [label="X[14] <= 51.5\ngini = 0.28\nsamples = 6\nvalue = [5, 1]", fillcolor="#ea9a61"] ;
376 -> 377 ;
378 [label="gini = 0.0\nsamples = 5\nvalue = [5, 0]", fillcolor="#e58139"] ;
377 -> 378 ;
379 [label="gini = 0.0\nsamples = 1\nvalue = [0, 1]", fillcolor="#399de5"] ;
377 -> 379 ;
380 [label="X[8] <= 50.0\ngini = 0.38\nsamples = 8\nvalue = [2, 6]", fillcolor="#7bbeee"] ;
376 -> 380 ;
381 [label="gini = 0.0\nsamples = 5\nvalue = [0, 5]", fillcolor="#399de5"] ;
380 -> 381 ;
382 [label="X[0] <= 55.0\ngini = 0.44\nsamples = 3\nvalue = [2, 1]", fillcolor="#f2c09c"] ;
380 -> 382 ;
383 [label="gini = 0.0\nsamples = 2\nvalue = [2, 0]", fillcolor="#e58139"] ;
382 -> 383 ;
384 [label="gini = 0.0\nsamples = 1\nvalue = [0, 1]", fillcolor="#399de5"] ;
382 -> 384 ;
385 [label="gini = 0.0\nsamples = 4\nvalue = [4, 0]", fillcolor="#e58139"] ;
375 -> 385 ;
386 [label="gini = 0.0\nsamples = 2\nvalue = [0, 2]", fillcolor="#399de5"] ;
372 -> 386 ;
387 [label="gini = 0.0\nsamples = 1\nvalue = [0, 1]", fillcolor="#399de5"] ;
241 -> 387 ;
388 [label="X[24] <= 1.83\ngini = 0.37\nsamples = 126\nvalue = [95, 31]", fillcolor="#edaa7a"] ;
4 -> 388 ;
389 [label="X[21] <= 2.5\ngini = 0.47\nsamples = 8\nvalue = [3, 5]", fillcolor="#b0d8f5"] ;
388 -> 389 ;
390 [label="X[8] <= 31.0\ngini = 0.28\nsamples = 6\nvalue = [1, 5]", fillcolor="#61b1ea"] ;
389 -> 390 ;
391 [label="X[24] <= 1.5\ngini = 0.5\nsamples = 2\nvalue = [1, 1]", fillcolor="#ffffff"] ;
390 -> 391 ;
392 [label="gini = 0.0\nsamples = 1\nvalue = [0, 1]", fillcolor="#399de5"] ;
391 -> 392 ;
393 [label="gini = 0.0\nsamples = 1\nvalue = [1, 0]", fillcolor="#e58139"] ;
391 -> 393 ;
394 [label="gini = 0.0\nsamples = 4\nvalue = [0, 4]", fillcolor="#399de5"] ;
390 -> 394 ;
395 [label="gini = 0.0\nsamples = 2\nvalue = [2, 0]", fillcolor="#e58139"] ;
389 -> 395 ;
396 [label="X[21] <= 3.5\ngini = 0.34\nsamples = 118\nvalue = [92, 26]", fillcolor="#eca571"] ;
388 -> 396 ;
397 [label="X[17] <= 4.7\ngini = 0.25\nsamples = 87\nvalue = [74, 13]", fillcolor="#ea975c"] ;
396 -> 397 ;
398 [label="X[17] <= 2.9\ngini = 0.33\nsamples = 62\nvalue = [49, 13]", fillcolor="#eca26e"] ;
397 -> 398 ;
399 [label="gini = 0.0\nsamples = 1\nvalue = [0, 1]", fillcolor="#399de5"] ;
398 -> 399 ;
400 [label="X[4] <= 56.0\ngini = 0.32\nsamples = 61\nvalue = [49, 12]", fillcolor="#eba069"] ;
398 -> 400 ;
401 [label="X[12] <= 61.5\ngini = 0.3\nsamples = 60\nvalue = [49, 11]", fillcolor="#eb9d65"] ;
400 -> 401 ;
402 [label="X[24] <= 3.17\ngini = 0.28\nsamples = 59\nvalue = [49, 10]", fillcolor="#ea9b61"] ;
401 -> 402 ;
403 [label="gini = 0.0\nsamples = 13\nvalue = [13, 0]", fillcolor="#e58139"] ;
402 -> 403 ;
404 [label="X[8] <= 39.5\ngini = 0.34\nsamples = 46\nvalue = [36, 10]", fillcolor="#eca470"] ;
402 -> 404 ;
405 [label="X[10] <= 31.5\ngini = 0.44\nsamples = 21\nvalue = [14, 7]", fillcolor="#f2c09c"] ;
404 -> 405 ;
406 [label="X[21] <= 1.5\ngini = 0.29\nsamples = 17\nvalue = [14, 3]", fillcolor="#eb9c63"] ;
405 -> 406 ;
407 [label="X[17] <= 4.5\ngini = 0.15\nsamples = 12\nvalue = [11, 1]", fillcolor="#e78c4b"] ;
406 -> 407 ;
408 [label="gini = 0.0\nsamples = 10\nvalue = [10, 0]", fillcolor="#e58139"] ;
407 -> 408 ;
409 [label="X[22] <= 1.5\ngini = 0.5\nsamples = 2\nvalue = [1, 1]", fillcolor="#ffffff"] ;
407 -> 409 ;
410 [label="gini = 0.0\nsamples = 1\nvalue = [0, 1]", fillcolor="#399de5"] ;
409 -> 410 ;
411 [label="gini = 0.0\nsamples = 1\nvalue = [1, 0]", fillcolor="#e58139"] ;
409 -> 411 ;
412 [label="X[8] <= 35.0\ngini = 0.48\nsamples = 5\nvalue = [3, 2]", fillcolor="#f6d5bd"] ;
406 -> 412 ;
413 [label="X[22] <= 3.0\ngini = 0.44\nsamples = 3\nvalue = [1, 2]", fillcolor="#9ccef2"] ;
412 -> 413 ;
414 [label="gini = 0.0\nsamples = 2\nvalue = [0, 2]", fillcolor="#399de5"] ;
413 -> 414 ;
415 [label="gini = 0.0\nsamples = 1\nvalue = [1, 0]", fillcolor="#e58139"] ;
413 -> 415 ;
416 [label="gini = 0.0\nsamples = 2\nvalue = [2, 0]", fillcolor="#e58139"] ;
412 -> 416 ;
417 [label="gini = 0.0\nsamples = 4\nvalue = [0, 4]", fillcolor="#399de5"] ;
405 -> 417 ;
418 [label="X[2] <= 57.5\ngini = 0.21\nsamples = 25\nvalue = [22, 3]", fillcolor="#e99254"] ;
404 -> 418 ;
419 [label="X[7] <= 50.5\ngini = 0.09\nsamples = 21\nvalue = [20, 1]", fillcolor="#e68743"] ;
418 -> 419 ;
420 [label="gini = 0.0\nsamples = 18\nvalue = [18, 0]", fillcolor="#e58139"] ;
419 -> 420 ;
421 [label="X[21] <= 2.0\ngini = 0.44\nsamples = 3\nvalue = [2, 1]", fillcolor="#f2c09c"] ;
419 -> 421 ;
422 [label="gini = 0.0\nsamples = 2\nvalue = [2, 0]", fillcolor="#e58139"] ;
421 -> 422 ;
423 [label="gini = 0.0\nsamples = 1\nvalue = [0, 1]", fillcolor="#399de5"] ;
421 -> 423 ;
424 [label="X[22] <= 2.0\ngini = 0.5\nsamples = 4\nvalue = [2, 2]", fillcolor="#ffffff"] ;
418 -> 424 ;
425 [label="gini = 0.0\nsamples = 2\nvalue = [0, 2]", fillcolor="#399de5"] ;
424 -> 425 ;
426 [label="gini = 0.0\nsamples = 2\nvalue = [2, 0]", fillcolor="#e58139"] ;
424 -> 426 ;
427 [label="gini = 0.0\nsamples = 1\nvalue = [0, 1]", fillcolor="#399de5"] ;
401 -> 427 ;
428 [label="gini = 0.0\nsamples = 1\nvalue = [0, 1]", fillcolor="#399de5"] ;
400 -> 428 ;
429 [label="gini = 0.0\nsamples = 25\nvalue = [25, 0]", fillcolor="#e58139"] ;
397 -> 429 ;
430 [label="X[2] <= 59.0\ngini = 0.49\nsamples = 31\nvalue = [18, 13]", fillcolor="#f8dcc8"] ;
396 -> 430 ;
431 [label="X[8] <= 47.0\ngini = 0.44\nsamples = 27\nvalue = [18, 9]", fillcolor="#f2c09c"] ;
430 -> 431 ;
432 [label="X[21] <= 4.5\ngini = 0.5\nsamples = 19\nvalue = [10, 9]", fillcolor="#fcf2eb"] ;
431 -> 432 ;
433 [label="gini = 0.0\nsamples = 5\nvalue = [0, 5]", fillcolor="#399de5"] ;
432 -> 433 ;
434 [label="X[9] <= 39.5\ngini = 0.41\nsamples = 14\nvalue = [10, 4]", fillcolor="#efb388"] ;
432 -> 434 ;
435 [label="X[17] <= 4.5\ngini = 0.18\nsamples = 10\nvalue = [9, 1]", fillcolor="#e88f4f"] ;
434 -> 435 ;
436 [label="gini = 0.0\nsamples = 8\nvalue = [8, 0]", fillcolor="#e58139"] ;
435 -> 436 ;
437 [label="X[25] <= 3.5\ngini = 0.5\nsamples = 2\nvalue = [1, 1]", fillcolor="#ffffff"] ;
435 -> 437 ;
438 [label="gini = 0.0\nsamples = 1\nvalue = [0, 1]", fillcolor="#399de5"] ;
437 -> 438 ;
439 [label="gini = 0.0\nsamples = 1\nvalue = [1, 0]", fillcolor="#e58139"] ;
437 -> 439 ;
440 [label="X[8] <= 40.0\ngini = 0.38\nsamples = 4\nvalue = [1, 3]", fillcolor="#7bbeee"] ;
434 -> 440 ;
441 [label="gini = 0.0\nsamples = 1\nvalue = [1, 0]", fillcolor="#e58139"] ;
440 -> 441 ;
442 [label="gini = 0.0\nsamples = 3\nvalue = [0, 3]", fillcolor="#399de5"] ;
440 -> 442 ;
443 [label="gini = 0.0\nsamples = 8\nvalue = [8, 0]", fillcolor="#e58139"] ;
431 -> 443 ;
444 [label="gini = 0.0\nsamples = 4\nvalue = [0, 4]", fillcolor="#399de5"] ;
430 -> 444 ;
445 [label="X[25] <= 2.5\ngini = 0.36\nsamples = 962\nvalue = [736, 226]", fillcolor="#eda876"] ;
3 -> 445 ;
446 [label="X[5] <= 52.5\ngini = 0.5\nsamples = 95\nvalue = [47, 48]", fillcolor="#fbfdfe"] ;
445 -> 446 ;
447 [label="X[23] <= 0.5\ngini = 0.49\nsamples = 70\nvalue = [41, 29]", fillcolor="#f7dac5"] ;
446 -> 447 ;
448 [label="X[17] <= 3.5\ngini = 0.4\nsamples = 43\nvalue = [31, 12]", fillcolor="#efb286"] ;
447 -> 448 ;
449 [label="X[5] <= 51.5\ngini = 0.32\nsamples = 5\nvalue = [1, 4]", fillcolor="#6ab6ec"] ;
448 -> 449 ;
450 [label="gini = 0.0\nsamples = 4\nvalue = [0, 4]", fillcolor="#399de5"] ;
449 -> 450 ;
451 [label="gini = 0.0\nsamples = 1\nvalue = [1, 0]", fillcolor="#e58139"] ;
449 -> 451 ;
452 [label="X[15] <= 56.5\ngini = 0.33\nsamples = 38\nvalue = [30, 8]", fillcolor="#eca36e"] ;
448 -> 452 ;
453 [label="X[13] <= 52.0\ngini = 0.28\nsamples = 36\nvalue = [30, 6]", fillcolor="#ea9a61"] ;
452 -> 453 ;
454 [label="X[12] <= 58.5\ngini = 0.17\nsamples = 31\nvalue = [28, 3]", fillcolor="#e88e4e"] ;
453 -> 454 ;
455 [label="X[24] <= 3.17\ngini = 0.12\nsamples = 30\nvalue = [28, 2]", fillcolor="#e78a47"] ;
454 -> 455 ;
456 [label="X[13] <= 50.5\ngini = 0.3\nsamples = 11\nvalue = [9, 2]", fillcolor="#eb9d65"] ;
455 -> 456 ;
457 [label="X[25] <= 1.5\ngini = 0.18\nsamples = 10\nvalue = [9, 1]", fillcolor="#e88f4f"] ;
456 -> 457 ;
458 [label="X[24] <= 2.33\ngini = 0.5\nsamples = 2\nvalue = [1, 1]", fillcolor="#ffffff"] ;
457 -> 458 ;
459 [label="gini = 0.0\nsamples = 1\nvalue = [1, 0]", fillcolor="#e58139"] ;
458 -> 459 ;
460 [label="gini = 0.0\nsamples = 1\nvalue = [0, 1]", fillcolor="#399de5"] ;
458 -> 460 ;
461 [label="gini = 0.0\nsamples = 8\nvalue = [8, 0]", fillcolor="#e58139"] ;
457 -> 461 ;
462 [label="gini = 0.0\nsamples = 1\nvalue = [0, 1]", fillcolor="#399de5"] ;
456 -> 462 ;
463 [label="gini = 0.0\nsamples = 19\nvalue = [19, 0]", fillcolor="#e58139"] ;
455 -> 463 ;
464 [label="gini = 0.0\nsamples = 1\nvalue = [0, 1]", fillcolor="#399de5"] ;
454 -> 464 ;
465 [label="X[10] <= 42.0\ngini = 0.48\nsamples = 5\nvalue = [2, 3]", fillcolor="#bddef6"] ;
453 -> 465 ;
466 [label="gini = 0.0\nsamples = 3\nvalue = [0, 3]", fillcolor="#399de5"] ;
465 -> 466 ;
467 [label="gini = 0.0\nsamples = 2\nvalue = [2, 0]", fillcolor="#e58139"] ;
465 -> 467 ;
468 [label="gini = 0.0\nsamples = 2\nvalue = [0, 2]", fillcolor="#399de5"] ;
452 -> 468 ;
469 [label="X[21] <= 4.5\ngini = 0.47\nsamples = 27\nvalue = [10, 17]", fillcolor="#add7f4"] ;
447 -> 469 ;
470 [label="X[8] <= 39.5\ngini = 0.5\nsamples = 19\nvalue = [10, 9]", fillcolor="#fcf2eb"] ;
469 -> 470 ;
471 [label="gini = 0.0\nsamples = 4\nvalue = [4, 0]", fillcolor="#e58139"] ;
470 -> 471 ;
472 [label="X[12] <= 50.5\ngini = 0.48\nsamples = 15\nvalue = [6, 9]", fillcolor="#bddef6"] ;
470 -> 472 ;
473 [label="gini = 0.0\nsamples = 7\nvalue = [0, 7]", fillcolor="#399de5"] ;
472 -> 473 ;
474 [label="X[8] <= 50.5\ngini = 0.38\nsamples = 8\nvalue = [6, 2]", fillcolor="#eeab7b"] ;
472 -> 474 ;
475 [label="gini = 0.0\nsamples = 5\nvalue = [5, 0]", fillcolor="#e58139"] ;
474 -> 475 ;
476 [label="X[17] <= 4.0\ngini = 0.44\nsamples = 3\nvalue = [1, 2]", fillcolor="#9ccef2"] ;
474 -> 476 ;
477 [label="gini = 0.0\nsamples = 1\nvalue = [1, 0]", fillcolor="#e58139"] ;
476 -> 477 ;
478 [label="gini = 0.0\nsamples = 2\nvalue = [0, 2]", fillcolor="#399de5"] ;
476 -> 478 ;
479 [label="gini = 0.0\nsamples = 8\nvalue = [0, 8]", fillcolor="#399de5"] ;
469 -> 479 ;
480 [label="X[8] <= 50.0\ngini = 0.36\nsamples = 25\nvalue = [6, 19]", fillcolor="#78bced"] ;
446 -> 480 ;
481 [label="X[13] <= 51.5\ngini = 0.29\nsamples = 23\nvalue = [4, 19]", fillcolor="#63b2ea"] ;
480 -> 481 ;
482 [label="X[15] <= 50.5\ngini = 0.18\nsamples = 20\nvalue = [2, 18]", fillcolor="#4fa8e8"] ;
481 -> 482 ;
483 [label="X[5] <= 53.5\ngini = 0.44\nsamples = 6\nvalue = [2, 4]", fillcolor="#9ccef2"] ;
482 -> 483 ;
484 [label="gini = 0.0\nsamples = 3\nvalue = [0, 3]", fillcolor="#399de5"] ;
483 -> 484 ;
485 [label="X[0] <= 51.5\ngini = 0.44\nsamples = 3\nvalue = [2, 1]", fillcolor="#f2c09c"] ;
483 -> 485 ;
486 [label="gini = 0.0\nsamples = 2\nvalue = [2, 0]", fillcolor="#e58139"] ;
485 -> 486 ;
487 [label="gini = 0.0\nsamples = 1\nvalue = [0, 1]", fillcolor="#399de5"] ;
485 -> 487 ;
488 [label="gini = 0.0\nsamples = 14\nvalue = [0, 14]", fillcolor="#399de5"] ;
482 -> 488 ;
489 [label="X[3] <= 53.0\ngini = 0.44\nsamples = 3\nvalue = [2, 1]", fillcolor="#f2c09c"] ;
481 -> 489 ;
490 [label="gini = 0.0\nsamples = 2\nvalue = [2, 0]", fillcolor="#e58139"] ;
489 -> 490 ;
491 [label="gini = 0.0\nsamples = 1\nvalue = [0, 1]", fillcolor="#399de5"] ;
489 -> 491 ;
492 [label="gini = 0.0\nsamples = 2\nvalue = [2, 0]", fillcolor="#e58139"] ;
480 -> 492 ;
493 [label="X[19] <= 0.5\ngini = 0.33\nsamples = 867\nvalue = [689, 178]", fillcolor="#eca26c"] ;
445 -> 493 ;
494 [label="X[22] <= 1.56\ngini = 0.29\nsamples = 785\nvalue = [646, 139]", fillcolor="#eb9c64"] ;
493 -> 494 ;
495 [label="X[17] <= 2.9\ngini = 0.18\nsamples = 320\nvalue = [288, 32]", fillcolor="#e88f4f"] ;
494 -> 495 ;
496 [label="gini = 0.0\nsamples = 2\nvalue = [0, 2]", fillcolor="#399de5"] ;
495 -> 496 ;
497 [label="X[2] <= 57.5\ngini = 0.17\nsamples = 318\nvalue = [288, 30]", fillcolor="#e88e4e"] ;
495 -> 497 ;
498 [label="X[1] <= 60.5\ngini = 0.14\nsamples = 293\nvalue = [271, 22]", fillcolor="#e78b49"] ;
497 -> 498 ;
499 [label="X[10] <= 31.5\ngini = 0.13\nsamples = 292\nvalue = [271, 21]", fillcolor="#e78b48"] ;
498 -> 499 ;
500 [label="X[9] <= 44.5\ngini = 0.5\nsamples = 4\nvalue = [2, 2]", fillcolor="#ffffff"] ;
499 -> 500 ;
501 [label="gini = 0.0\nsamples = 2\nvalue = [0, 2]", fillcolor="#399de5"] ;
500 -> 501 ;
502 [label="gini = 0.0\nsamples = 2\nvalue = [2, 0]", fillcolor="#e58139"] ;
500 -> 502 ;
503 [label="X[16] <= 55.5\ngini = 0.12\nsamples = 288\nvalue = [269, 19]", fillcolor="#e78a47"] ;
499 -> 503 ;
504 [label="X[21] <= 7.5\ngini = 0.11\nsamples = 278\nvalue = [262, 16]", fillcolor="#e78945"] ;
503 -> 504 ;
505 [label="X[15] <= 53.0\ngini = 0.1\nsamples = 276\nvalue = [261, 15]", fillcolor="#e68844"] ;
504 -> 505 ;
506 [label="X[2] <= 51.5\ngini = 0.07\nsamples = 235\nvalue = [226, 9]", fillcolor="#e68641"] ;
505 -> 506 ;
507 [label="X[24] <= 3.83\ngini = 0.11\nsamples = 140\nvalue = [132, 8]", fillcolor="#e78945"] ;
506 -> 507 ;
508 [label="X[7] <= 58.0\ngini = 0.22\nsamples = 31\nvalue = [27, 4]", fillcolor="#e99456"] ;
507 -> 508 ;
509 [label="X[13] <= 54.0\ngini = 0.18\nsamples = 30\nvalue = [27, 3]", fillcolor="#e88f4f"] ;
508 -> 509 ;
510 [label="X[6] <= 51.5\ngini = 0.13\nsamples = 29\nvalue = [27, 2]", fillcolor="#e78a48"] ;
509 -> 510 ;
511 [label="gini = 0.0\nsamples = 23\nvalue = [23, 0]", fillcolor="#e58139"] ;
510 -> 511 ;
512 [label="X[21] <= 1.5\ngini = 0.44\nsamples = 6\nvalue = [4, 2]", fillcolor="#f2c09c"] ;
510 -> 512 ;
513 [label="gini = 0.0\nsamples = 3\nvalue = [3, 0]", fillcolor="#e58139"] ;
512 -> 513 ;
514 [label="X[9] <= 46.5\ngini = 0.44\nsamples = 3\nvalue = [1, 2]", fillcolor="#9ccef2"] ;
512 -> 514 ;
515 [label="gini = 0.0\nsamples = 2\nvalue = [0, 2]", fillcolor="#399de5"] ;
514 -> 515 ;
516 [label="gini = 0.0\nsamples = 1\nvalue = [1, 0]", fillcolor="#e58139"] ;
514 -> 516 ;
517 [label="gini = 0.0\nsamples = 1\nvalue = [0, 1]", fillcolor="#399de5"] ;
509 -> 517 ;
518 [label="gini = 0.0\nsamples = 1\nvalue = [0, 1]", fillcolor="#399de5"] ;
508 -> 518 ;
519 [label="X[17] <= 4.1\ngini = 0.07\nsamples = 109\nvalue = [105, 4]", fillcolor="#e68641"] ;
507 -> 519 ;
520 [label="X[5] <= 51.5\ngini = 0.3\nsamples = 11\nvalue = [9, 2]", fillcolor="#eb9d65"] ;
519 -> 520 ;
521 [label="gini = 0.0\nsamples = 8\nvalue = [8, 0]", fillcolor="#e58139"] ;
520 -> 521 ;
522 [label="X[24] <= 4.83\ngini = 0.44\nsamples = 3\nvalue = [1, 2]", fillcolor="#9ccef2"] ;
520 -> 522 ;
523 [label="gini = 0.0\nsamples = 1\nvalue = [1, 0]", fillcolor="#e58139"] ;
522 -> 523 ;
524 [label="gini = 0.0\nsamples = 2\nvalue = [0, 2]", fillcolor="#399de5"] ;
522 -> 524 ;
525 [label="X[4] <= 56.5\ngini = 0.04\nsamples = 98\nvalue = [96, 2]", fillcolor="#e6843d"] ;
519 -> 525 ;
526 [label="X[13] <= 51.5\ngini = 0.02\nsamples = 93\nvalue = [92, 1]", fillcolor="#e5823b"] ;
525 -> 526 ;
527 [label="gini = 0.0\nsamples = 81\nvalue = [81, 0]", fillcolor="#e58139"] ;
526 -> 527 ;
528 [label="X[8] <= 39.0\ngini = 0.15\nsamples = 12\nvalue = [11, 1]", fillcolor="#e78c4b"] ;
526 -> 528 ;
529 [label="gini = 0.0\nsamples = 1\nvalue = [0, 1]", fillcolor="#399de5"] ;
528 -> 529 ;
530 [label="gini = 0.0\nsamples = 11\nvalue = [11, 0]", fillcolor="#e58139"] ;
528 -> 530 ;
531 [label="X[17] <= 4.7\ngini = 0.32\nsamples = 5\nvalue = [4, 1]", fillcolor="#eca06a"] ;
525 -> 531 ;
532 [label="gini = 0.0\nsamples = 1\nvalue = [0, 1]", fillcolor="#399de5"] ;
531 -> 532 ;
533 [label="gini = 0.0\nsamples = 4\nvalue = [4, 0]", fillcolor="#e58139"] ;
531 -> 533 ;
534 [label="X[5] <= 52.5\ngini = 0.02\nsamples = 95\nvalue = [94, 1]", fillcolor="#e5823b"] ;
506 -> 534 ;
535 [label="gini = 0.0\nsamples = 74\nvalue = [74, 0]", fillcolor="#e58139"] ;
534 -> 535 ;
536 [label="X[15] <= 50.5\ngini = 0.09\nsamples = 21\nvalue = [20, 1]", fillcolor="#e68743"] ;
534 -> 536 ;
537 [label="X[12] <= 50.5\ngini = 0.5\nsamples = 2\nvalue = [1, 1]", fillcolor="#ffffff"] ;
536 -> 537 ;
538 [label="gini = 0.0\nsamples = 1\nvalue = [0, 1]", fillcolor="#399de5"] ;
537 -> 538 ;
539 [label="gini = 0.0\nsamples = 1\nvalue = [1, 0]", fillcolor="#e58139"] ;
537 -> 539 ;
540 [label="gini = 0.0\nsamples = 19\nvalue = [19, 0]", fillcolor="#e58139"] ;
536 -> 540 ;
541 [label="X[12] <= 56.0\ngini = 0.25\nsamples = 41\nvalue = [35, 6]", fillcolor="#e9975b"] ;
505 -> 541 ;
542 [label="X[9] <= 44.0\ngini = 0.16\nsamples = 35\nvalue = [32, 3]", fillcolor="#e78d4c"] ;
541 -> 542 ;
543 [label="gini = 0.0\nsamples = 1\nvalue = [0, 1]", fillcolor="#399de5"] ;
542 -> 543 ;
544 [label="X[13] <= 56.0\ngini = 0.11\nsamples = 34\nvalue = [32, 2]", fillcolor="#e78945"] ;
542 -> 544 ;
545 [label="X[15] <= 54.5\ngini = 0.06\nsamples = 33\nvalue = [32, 1]", fillcolor="#e6853f"] ;
544 -> 545 ;
546 [label="X[21] <= 3.5\ngini = 0.38\nsamples = 4\nvalue = [3, 1]", fillcolor="#eeab7b"] ;
545 -> 546 ;
547 [label="gini = 0.0\nsamples = 3\nvalue = [3, 0]", fillcolor="#e58139"] ;
546 -> 547 ;
548 [label="gini = 0.0\nsamples = 1\nvalue = [0, 1]", fillcolor="#399de5"] ;
546 -> 548 ;
549 [label="gini = 0.0\nsamples = 29\nvalue = [29, 0]", fillcolor="#e58139"] ;
545 -> 549 ;
550 [label="gini = 0.0\nsamples = 1\nvalue = [0, 1]", fillcolor="#399de5"] ;
544 -> 550 ;
551 [label="X[24] <= 4.33\ngini = 0.5\nsamples = 6\nvalue = [3, 3]", fillcolor="#ffffff"] ;
541 -> 551 ;
552 [label="gini = 0.0\nsamples = 3\nvalue = [3, 0]", fillcolor="#e58139"] ;
551 -> 552 ;
553 [label="gini = 0.0\nsamples = 3\nvalue = [0, 3]", fillcolor="#399de5"] ;
551 -> 553 ;
554 [label="X[11] <= 50.5\ngini = 0.5\nsamples = 2\nvalue = [1, 1]", fillcolor="#ffffff"] ;
504 -> 554 ;
555 [label="gini = 0.0\nsamples = 1\nvalue = [1, 0]", fillcolor="#e58139"] ;
554 -> 555 ;
556 [label="gini = 0.0\nsamples = 1\nvalue = [0, 1]", fillcolor="#399de5"] ;
554 -> 556 ;
557 [label="X[4] <= 51.5\ngini = 0.42\nsamples = 10\nvalue = [7, 3]", fillcolor="#f0b78e"] ;
503 -> 557 ;
558 [label="X[22] <= 0.5\ngini = 0.48\nsamples = 5\nvalue = [2, 3]", fillcolor="#bddef6"] ;
557 -> 558 ;
559 [label="gini = 0.0\nsamples = 2\nvalue = [2, 0]", fillcolor="#e58139"] ;
558 -> 559 ;
560 [label="gini = 0.0\nsamples = 3\nvalue = [0, 3]", fillcolor="#399de5"] ;
558 -> 560 ;
561 [label="gini = 0.0\nsamples = 5\nvalue = [5, 0]", fillcolor="#e58139"] ;
557 -> 561 ;
562 [label="gini = 0.0\nsamples = 1\nvalue = [0, 1]", fillcolor="#399de5"] ;
498 -> 562 ;
563 [label="X[13] <= 50.5\ngini = 0.44\nsamples = 25\nvalue = [17, 8]", fillcolor="#f1bc96"] ;
497 -> 563 ;
564 [label="X[9] <= 44.0\ngini = 0.27\nsamples = 19\nvalue = [16, 3]", fillcolor="#ea995e"] ;
563 -> 564 ;
565 [label="gini = 0.0\nsamples = 1\nvalue = [0, 1]", fillcolor="#399de5"] ;
564 -> 565 ;
566 [label="X[7] <= 55.5\ngini = 0.2\nsamples = 18\nvalue = [16, 2]", fillcolor="#e89152"] ;
564 -> 566 ;
567 [label="X[5] <= 51.5\ngini = 0.11\nsamples = 17\nvalue = [16, 1]", fillcolor="#e78945"] ;
566 -> 567 ;
568 [label="gini = 0.0\nsamples = 12\nvalue = [12, 0]", fillcolor="#e58139"] ;
567 -> 568 ;
569 [label="X[11] <= 52.0\ngini = 0.32\nsamples = 5\nvalue = [4, 1]", fillcolor="#eca06a"] ;
567 -> 569 ;
570 [label="gini = 0.0\nsamples = 4\nvalue = [4, 0]", fillcolor="#e58139"] ;
569 -> 570 ;
571 [label="gini = 0.0\nsamples = 1\nvalue = [0, 1]", fillcolor="#399de5"] ;
569 -> 571 ;
572 [label="gini = 0.0\nsamples = 1\nvalue = [0, 1]", fillcolor="#399de5"] ;
566 -> 572 ;
573 [label="X[21] <= 0.5\ngini = 0.28\nsamples = 6\nvalue = [1, 5]", fillcolor="#61b1ea"] ;
563 -> 573 ;
574 [label="gini = 0.0\nsamples = 1\nvalue = [1, 0]", fillcolor="#e58139"] ;
573 -> 574 ;
575 [label="gini = 0.0\nsamples = 5\nvalue = [0, 5]", fillcolor="#399de5"] ;
573 -> 575 ;
576 [label="X[10] <= 34.5\ngini = 0.35\nsamples = 465\nvalue = [358, 107]", fillcolor="#eda774"] ;
494 -> 576 ;
577 [label="X[22] <= 4.5\ngini = 0.08\nsamples = 46\nvalue = [44, 2]", fillcolor="#e68742"] ;
576 -> 577 ;
578 [label="gini = 0.0\nsamples = 39\nvalue = [39, 0]", fillcolor="#e58139"] ;
577 -> 578 ;
579 [label="X[7] <= 51.5\ngini = 0.41\nsamples = 7\nvalue = [5, 2]", fillcolor="#efb388"] ;
577 -> 579 ;
580 [label="gini = 0.0\nsamples = 5\nvalue = [5, 0]", fillcolor="#e58139"] ;
579 -> 580 ;
581 [label="gini = 0.0\nsamples = 2\nvalue = [0, 2]", fillcolor="#399de5"] ;
579 -> 581 ;
582 [label="X[9] <= 44.5\ngini = 0.38\nsamples = 419\nvalue = [314, 105]", fillcolor="#eeab7b"] ;
576 -> 582 ;
583 [label="X[17] <= 4.5\ngini = 0.5\nsamples = 28\nvalue = [15, 13]", fillcolor="#fceee5"] ;
582 -> 583 ;
584 [label="X[14] <= 51.5\ngini = 0.26\nsamples = 13\nvalue = [11, 2]", fillcolor="#ea985d"] ;
583 -> 584 ;
585 [label="gini = 0.0\nsamples = 10\nvalue = [10, 0]", fillcolor="#e58139"] ;
584 -> 585 ;
586 [label="X[3] <= 52.5\ngini = 0.44\nsamples = 3\nvalue = [1, 2]", fillcolor="#9ccef2"] ;
584 -> 586 ;
587 [label="gini = 0.0\nsamples = 2\nvalue = [0, 2]", fillcolor="#399de5"] ;
586 -> 587 ;
588 [label="gini = 0.0\nsamples = 1\nvalue = [1, 0]", fillcolor="#e58139"] ;
586 -> 588 ;
589 [label="X[13] <= 52.5\ngini = 0.39\nsamples = 15\nvalue = [4, 11]", fillcolor="#81c1ee"] ;
583 -> 589 ;
590 [label="X[6] <= 53.5\ngini = 0.17\nsamples = 11\nvalue = [1, 10]", fillcolor="#4da7e8"] ;
589 -> 590 ;
591 [label="gini = 0.0\nsamples = 10\nvalue = [0, 10]", fillcolor="#399de5"] ;
590 -> 591 ;
592 [label="gini = 0.0\nsamples = 1\nvalue = [1, 0]", fillcolor="#e58139"] ;
590 -> 592 ;
593 [label="X[8] <= 52.5\ngini = 0.38\nsamples = 4\nvalue = [3, 1]", fillcolor="#eeab7b"] ;
589 -> 593 ;
594 [label="gini = 0.0\nsamples = 3\nvalue = [3, 0]", fillcolor="#e58139"] ;
593 -> 594 ;
595 [label="gini = 0.0\nsamples = 1\nvalue = [0, 1]", fillcolor="#399de5"] ;
593 -> 595 ;
596 [label="X[5] <= 52.5\ngini = 0.36\nsamples = 391\nvalue = [299, 92]", fillcolor="#eda876"] ;
582 -> 596 ;
597 [label="X[2] <= 63.5\ngini = 0.3\nsamples = 247\nvalue = [201, 46]", fillcolor="#eb9e66"] ;
596 -> 597 ;
598 [label="X[0] <= 51.5\ngini = 0.29\nsamples = 245\nvalue = [201, 44]", fillcolor="#eb9d64"] ;
597 -> 598 ;
599 [label="X[12] <= 53.0\ngini = 0.33\nsamples = 204\nvalue = [162, 42]", fillcolor="#eca26c"] ;
598 -> 599 ;
600 [label="X[4] <= 58.0\ngini = 0.31\nsamples = 186\nvalue = [151, 35]", fillcolor="#eb9e67"] ;
599 -> 600 ;
601 [label="X[7] <= 66.0\ngini = 0.29\nsamples = 181\nvalue = [149, 32]", fillcolor="#eb9c64"] ;
600 -> 601 ;
602 [label="X[13] <= 52.5\ngini = 0.29\nsamples = 180\nvalue = [149, 31]", fillcolor="#ea9b62"] ;
601 -> 602 ;
603 [label="X[1] <= 50.5\ngini = 0.3\nsamples = 166\nvalue = [135, 31]", fillcolor="#eb9e66"] ;
602 -> 603 ;
604 [label="X[17] <= 4.5\ngini = 0.24\nsamples = 109\nvalue = [94, 15]", fillcolor="#e99559"] ;
603 -> 604 ;
605 [label="X[24] <= 2.5\ngini = 0.35\nsamples = 45\nvalue = [35, 10]", fillcolor="#eca572"] ;
604 -> 605 ;
606 [label="X[12] <= 50.5\ngini = 0.48\nsamples = 5\nvalue = [2, 3]", fillcolor="#bddef6"] ;
605 -> 606 ;
607 [label="gini = 0.0\nsamples = 3\nvalue = [0, 3]", fillcolor="#399de5"] ;
606 -> 607 ;
608 [label="gini = 0.0\nsamples = 2\nvalue = [2, 0]", fillcolor="#e58139"] ;
606 -> 608 ;
609 [label="X[21] <= 0.5\ngini = 0.29\nsamples = 40\nvalue = [33, 7]", fillcolor="#eb9c63"] ;
605 -> 609 ;
610 [label="X[13] <= 50.5\ngini = 0.49\nsamples = 9\nvalue = [5, 4]", fillcolor="#fae6d7"] ;
609 -> 610 ;
611 [label="X[22] <= 3.5\ngini = 0.41\nsamples = 7\nvalue = [5, 2]", fillcolor="#efb388"] ;
610 -> 611 ;
612 [label="X[8] <= 37.0\ngini = 0.28\nsamples = 6\nvalue = [5, 1]", fillcolor="#ea9a61"] ;
611 -> 612 ;
613 [label="gini = 0.0\nsamples = 1\nvalue = [0, 1]", fillcolor="#399de5"] ;
612 -> 613 ;
614 [label="gini = 0.0\nsamples = 5\nvalue = [5, 0]", fillcolor="#e58139"] ;
612 -> 614 ;
615 [label="gini = 0.0\nsamples = 1\nvalue = [0, 1]", fillcolor="#399de5"] ;
611 -> 615 ;
616 [label="gini = 0.0\nsamples = 2\nvalue = [0, 2]", fillcolor="#399de5"] ;
610 -> 616 ;
617 [label="X[22] <= 6.5\ngini = 0.17\nsamples = 31\nvalue = [28, 3]", fillcolor="#e88e4e"] ;
609 -> 617 ;
618 [label="X[10] <= 35.5\ngini = 0.12\nsamples = 30\nvalue = [28, 2]", fillcolor="#e78a47"] ;
617 -> 618 ;
619 [label="X[15] <= 51.5\ngini = 0.48\nsamples = 5\nvalue = [3, 2]", fillcolor="#f6d5bd"] ;
618 -> 619 ;
620 [label="gini = 0.0\nsamples = 2\nvalue = [0, 2]", fillcolor="#399de5"] ;
619 -> 620 ;
621 [label="gini = 0.0\nsamples = 3\nvalue = [3, 0]", fillcolor="#e58139"] ;
619 -> 621 ;
622 [label="gini = 0.0\nsamples = 25\nvalue = [25, 0]", fillcolor="#e58139"] ;
618 -> 622 ;
623 [label="gini = 0.0\nsamples = 1\nvalue = [0, 1]", fillcolor="#399de5"] ;
617 -> 623 ;
624 [label="X[14] <= 50.5\ngini = 0.14\nsamples = 64\nvalue = [59, 5]", fillcolor="#e78c4a"] ;
604 -> 624 ;
625 [label="gini = 0.0\nsamples = 39\nvalue = [39, 0]", fillcolor="#e58139"] ;
624 -> 625 ;
626 [label="X[21] <= 1.5\ngini = 0.32\nsamples = 25\nvalue = [20, 5]", fillcolor="#eca06a"] ;
624 -> 626 ;
627 [label="X[15] <= 53.5\ngini = 0.1\nsamples = 18\nvalue = [17, 1]", fillcolor="#e78845"] ;
626 -> 627 ;
628 [label="gini = 0.0\nsamples = 14\nvalue = [14, 0]", fillcolor="#e58139"] ;
627 -> 628 ;
629 [label="X[4] <= 53.5\ngini = 0.38\nsamples = 4\nvalue = [3, 1]", fillcolor="#eeab7b"] ;
627 -> 629 ;
630 [label="gini = 0.0\nsamples = 1\nvalue = [0, 1]", fillcolor="#399de5"] ;
629 -> 630 ;
631 [label="gini = 0.0\nsamples = 3\nvalue = [3, 0]", fillcolor="#e58139"] ;
629 -> 631 ;
632 [label="X[14] <= 51.5\ngini = 0.49\nsamples = 7\nvalue = [3, 4]", fillcolor="#cee6f8"] ;
626 -> 632 ;
633 [label="gini = 0.0\nsamples = 3\nvalue = [0, 3]", fillcolor="#399de5"] ;
632 -> 633 ;
634 [label="X[8] <= 41.0\ngini = 0.38\nsamples = 4\nvalue = [3, 1]", fillcolor="#eeab7b"] ;
632 -> 634 ;
635 [label="gini = 0.0\nsamples = 1\nvalue = [0, 1]", fillcolor="#399de5"] ;
634 -> 635 ;
636 [label="gini = 0.0\nsamples = 3\nvalue = [3, 0]", fillcolor="#e58139"] ;
634 -> 636 ;
637 [label="X[11] <= 53.5\ngini = 0.4\nsamples = 57\nvalue = [41, 16]", fillcolor="#efb286"] ;
603 -> 637 ;
638 [label="X[8] <= 43.5\ngini = 0.37\nsamples = 54\nvalue = [41, 13]", fillcolor="#eda978"] ;
637 -> 638 ;
639 [label="X[9] <= 52.5\ngini = 0.21\nsamples = 25\nvalue = [22, 3]", fillcolor="#e99254"] ;
638 -> 639 ;
640 [label="X[22] <= 6.0\ngini = 0.15\nsamples = 24\nvalue = [22, 2]", fillcolor="#e78c4b"] ;
639 -> 640 ;
641 [label="X[15] <= 50.5\ngini = 0.09\nsamples = 22\nvalue = [21, 1]", fillcolor="#e68742"] ;
640 -> 641 ;
642 [label="X[8] <= 40.5\ngini = 0.44\nsamples = 3\nvalue = [2, 1]", fillcolor="#f2c09c"] ;
641 -> 642 ;
643 [label="gini = 0.0\nsamples = 1\nvalue = [1, 0]", fillcolor="#e58139"] ;
642 -> 643 ;
644 [label="X[25] <= 4.5\ngini = 0.5\nsamples = 2\nvalue = [1, 1]", fillcolor="#ffffff"] ;
642 -> 644 ;
645 [label="gini = 0.0\nsamples = 1\nvalue = [0, 1]", fillcolor="#399de5"] ;
644 -> 645 ;
646 [label="gini = 0.0\nsamples = 1\nvalue = [1, 0]", fillcolor="#e58139"] ;
644 -> 646 ;
647 [label="gini = 0.0\nsamples = 19\nvalue = [19, 0]", fillcolor="#e58139"] ;
641 -> 647 ;
648 [label="X[4] <= 50.5\ngini = 0.5\nsamples = 2\nvalue = [1, 1]", fillcolor="#ffffff"] ;
640 -> 648 ;
649 [label="gini = 0.0\nsamples = 1\nvalue = [1, 0]", fillcolor="#e58139"] ;
648 -> 649 ;
650 [label="gini = 0.0\nsamples = 1\nvalue = [0, 1]", fillcolor="#399de5"] ;
648 -> 650 ;
651 [label="gini = 0.0\nsamples = 1\nvalue = [0, 1]", fillcolor="#399de5"] ;
639 -> 651 ;
652 [label="X[6] <= 50.5\ngini = 0.45\nsamples = 29\nvalue = [19, 10]", fillcolor="#f3c3a1"] ;
638 -> 652 ;
653 [label="X[25] <= 4.5\ngini = 0.44\nsamples = 9\nvalue = [3, 6]", fillcolor="#9ccef2"] ;
652 -> 653 ;
654 [label="X[8] <= 45.0\ngini = 0.38\nsamples = 4\nvalue = [3, 1]", fillcolor="#eeab7b"] ;
653 -> 654 ;
655 [label="gini = 0.0\nsamples = 1\nvalue = [0, 1]", fillcolor="#399de5"] ;
654 -> 655 ;
656 [label="gini = 0.0\nsamples = 3\nvalue = [3, 0]", fillcolor="#e58139"] ;
654 -> 656 ;
657 [label="gini = 0.0\nsamples = 5\nvalue = [0, 5]", fillcolor="#399de5"] ;
653 -> 657 ;
658 [label="X[7] <= 50.5\ngini = 0.32\nsamples = 20\nvalue = [16, 4]", fillcolor="#eca06a"] ;
652 -> 658 ;
659 [label="gini = 0.0\nsamples = 9\nvalue = [9, 0]", fillcolor="#e58139"] ;
658 -> 659 ;
660 [label="X[25] <= 3.5\ngini = 0.46\nsamples = 11\nvalue = [7, 4]", fillcolor="#f4c9aa"] ;
658 -> 660 ;
661 [label="gini = 0.0\nsamples = 2\nvalue = [0, 2]", fillcolor="#399de5"] ;
660 -> 661 ;
662 [label="X[13] <= 51.5\ngini = 0.35\nsamples = 9\nvalue = [7, 2]", fillcolor="#eca572"] ;
660 -> 662 ;
663 [label="X[5] <= 51.5\ngini = 0.22\nsamples = 8\nvalue = [7, 1]", fillcolor="#e99355"] ;
662 -> 663 ;
664 [label="gini = 0.0\nsamples = 6\nvalue = [6, 0]", fillcolor="#e58139"] ;
663 -> 664 ;
665 [label="X[23] <= 0.5\ngini = 0.5\nsamples = 2\nvalue = [1, 1]", fillcolor="#ffffff"] ;
663 -> 665 ;
666 [label="gini = 0.0\nsamples = 1\nvalue = [0, 1]", fillcolor="#399de5"] ;
665 -> 666 ;
667 [label="gini = 0.0\nsamples = 1\nvalue = [1, 0]", fillcolor="#e58139"] ;
665 -> 667 ;
668 [label="gini = 0.0\nsamples = 1\nvalue = [0, 1]", fillcolor="#399de5"] ;
662 -> 668 ;
669 [label="gini = 0.0\nsamples = 3\nvalue = [0, 3]", fillcolor="#399de5"] ;
637 -> 669 ;
670 [label="gini = 0.0\nsamples = 14\nvalue = [14, 0]", fillcolor="#e58139"] ;
602 -> 670 ;
671 [label="gini = 0.0\nsamples = 1\nvalue = [0, 1]", fillcolor="#399de5"] ;
601 -> 671 ;
672 [label="X[22] <= 2.5\ngini = 0.48\nsamples = 5\nvalue = [2, 3]", fillcolor="#bddef6"] ;
600 -> 672 ;
673 [label="gini = 0.0\nsamples = 2\nvalue = [2, 0]", fillcolor="#e58139"] ;
672 -> 673 ;
674 [label="gini = 0.0\nsamples = 3\nvalue = [0, 3]", fillcolor="#399de5"] ;
672 -> 674 ;
675 [label="X[8] <= 41.5\ngini = 0.48\nsamples = 18\nvalue = [11, 7]", fillcolor="#f6d1b7"] ;
599 -> 675 ;
676 [label="gini = 0.0\nsamples = 3\nvalue = [0, 3]", fillcolor="#399de5"] ;
675 -> 676 ;
677 [label="X[15] <= 54.5\ngini = 0.39\nsamples = 15\nvalue = [11, 4]", fillcolor="#eeaf81"] ;
675 -> 677 ;
678 [label="X[3] <= 58.5\ngini = 0.17\nsamples = 11\nvalue = [10, 1]", fillcolor="#e88e4d"] ;
677 -> 678 ;
679 [label="gini = 0.0\nsamples = 10\nvalue = [10, 0]", fillcolor="#e58139"] ;
678 -> 679 ;
680 [label="gini = 0.0\nsamples = 1\nvalue = [0, 1]", fillcolor="#399de5"] ;
678 -> 680 ;
681 [label="X[24] <= 4.33\ngini = 0.38\nsamples = 4\nvalue = [1, 3]", fillcolor="#7bbeee"] ;
677 -> 681 ;
682 [label="gini = 0.0\nsamples = 3\nvalue = [0, 3]", fillcolor="#399de5"] ;
681 -> 682 ;
683 [label="gini = 0.0\nsamples = 1\nvalue = [1, 0]", fillcolor="#e58139"] ;
681 -> 683 ;
684 [label="X[22] <= 4.5\ngini = 0.09\nsamples = 41\nvalue = [39, 2]", fillcolor="#e68743"] ;
598 -> 684 ;
685 [label="gini = 0.0\nsamples = 34\nvalue = [34, 0]", fillcolor="#e58139"] ;
684 -> 685 ;
686 [label="X[23] <= 0.5\ngini = 0.41\nsamples = 7\nvalue = [5, 2]", fillcolor="#efb388"] ;
684 -> 686 ;
687 [label="gini = 0.0\nsamples = 5\nvalue = [5, 0]", fillcolor="#e58139"] ;
686 -> 687 ;
688 [label="gini = 0.0\nsamples = 2\nvalue = [0, 2]", fillcolor="#399de5"] ;
686 -> 688 ;
689 [label="gini = 0.0\nsamples = 2\nvalue = [0, 2]", fillcolor="#399de5"] ;
597 -> 689 ;
690 [label="X[24] <= 3.17\ngini = 0.43\nsamples = 144\nvalue = [98, 46]", fillcolor="#f1bc96"] ;
596 -> 690 ;
691 [label="X[21] <= 2.5\ngini = 0.49\nsamples = 27\nvalue = [12, 15]", fillcolor="#d7ebfa"] ;
690 -> 691 ;
692 [label="X[12] <= 54.5\ngini = 0.43\nsamples = 13\nvalue = [9, 4]", fillcolor="#f1b991"] ;
691 -> 692 ;
693 [label="X[14] <= 52.0\ngini = 0.3\nsamples = 11\nvalue = [9, 2]", fillcolor="#eb9d65"] ;
692 -> 693 ;
694 [label="X[4] <= 50.5\ngini = 0.18\nsamples = 10\nvalue = [9, 1]", fillcolor="#e88f4f"] ;
693 -> 694 ;
695 [label="gini = 0.0\nsamples = 7\nvalue = [7, 0]", fillcolor="#e58139"] ;
694 -> 695 ;
696 [label="X[5] <= 54.5\ngini = 0.44\nsamples = 3\nvalue = [2, 1]", fillcolor="#f2c09c"] ;
694 -> 696 ;
697 [label="gini = 0.0\nsamples = 2\nvalue = [2, 0]", fillcolor="#e58139"] ;
696 -> 697 ;
698 [label="gini = 0.0\nsamples = 1\nvalue = [0, 1]", fillcolor="#399de5"] ;
696 -> 698 ;
699 [label="gini = 0.0\nsamples = 1\nvalue = [0, 1]", fillcolor="#399de5"] ;
693 -> 699 ;
700 [label="gini = 0.0\nsamples = 2\nvalue = [0, 2]", fillcolor="#399de5"] ;
692 -> 700 ;
701 [label="X[9] <= 51.0\ngini = 0.34\nsamples = 14\nvalue = [3, 11]", fillcolor="#6fb8ec"] ;
691 -> 701 ;
702 [label="X[24] <= 2.83\ngini = 0.48\nsamples = 5\nvalue = [3, 2]", fillcolor="#f6d5bd"] ;
701 -> 702 ;
703 [label="gini = 0.0\nsamples = 3\nvalue = [3, 0]", fillcolor="#e58139"] ;
702 -> 703 ;
704 [label="gini = 0.0\nsamples = 2\nvalue = [0, 2]", fillcolor="#399de5"] ;
702 -> 704 ;
705 [label="gini = 0.0\nsamples = 9\nvalue = [0, 9]", fillcolor="#399de5"] ;
701 -> 705 ;
706 [label="X[6] <= 55.5\ngini = 0.39\nsamples = 117\nvalue = [86, 31]", fillcolor="#eeae80"] ;
690 -> 706 ;
707 [label="X[23] <= 0.5\ngini = 0.37\nsamples = 113\nvalue = [85, 28]", fillcolor="#eeab7a"] ;
706 -> 707 ;
708 [label="X[13] <= 55.5\ngini = 0.34\nsamples = 105\nvalue = [82, 23]", fillcolor="#eca471"] ;
707 -> 708 ;
709 [label="X[14] <= 55.5\ngini = 0.31\nsamples = 98\nvalue = [79, 19]", fillcolor="#eb9f69"] ;
708 -> 709 ;
710 [label="X[21] <= 1.5\ngini = 0.28\nsamples = 93\nvalue = [77, 16]", fillcolor="#ea9b62"] ;
709 -> 710 ;
711 [label="X[3] <= 60.0\ngini = 0.13\nsamples = 43\nvalue = [40, 3]", fillcolor="#e78a48"] ;
710 -> 711 ;
712 [label="X[9] <= 49.0\ngini = 0.09\nsamples = 42\nvalue = [40, 2]", fillcolor="#e68743"] ;
711 -> 712 ;
713 [label="X[4] <= 51.5\ngini = 0.26\nsamples = 13\nvalue = [11, 2]", fillcolor="#ea985d"] ;
712 -> 713 ;
714 [label="X[0] <= 51.5\ngini = 0.15\nsamples = 12\nvalue = [11, 1]", fillcolor="#e78c4b"] ;
713 -> 714 ;
715 [label="gini = 0.0\nsamples = 9\nvalue = [9, 0]", fillcolor="#e58139"] ;
714 -> 715 ;
716 [label="X[17] <= 4.6\ngini = 0.44\nsamples = 3\nvalue = [2, 1]", fillcolor="#f2c09c"] ;
714 -> 716 ;
717 [label="gini = 0.0\nsamples = 1\nvalue = [0, 1]", fillcolor="#399de5"] ;
716 -> 717 ;
718 [label="gini = 0.0\nsamples = 2\nvalue = [2, 0]", fillcolor="#e58139"] ;
716 -> 718 ;
719 [label="gini = 0.0\nsamples = 1\nvalue = [0, 1]", fillcolor="#399de5"] ;
713 -> 719 ;
720 [label="gini = 0.0\nsamples = 29\nvalue = [29, 0]", fillcolor="#e58139"] ;
712 -> 720 ;
721 [label="gini = 0.0\nsamples = 1\nvalue = [0, 1]", fillcolor="#399de5"] ;
711 -> 721 ;
722 [label="X[6] <= 50.5\ngini = 0.38\nsamples = 50\nvalue = [37, 13]", fillcolor="#eead7f"] ;
710 -> 722 ;
723 [label="X[24] <= 4.83\ngini = 0.48\nsamples = 30\nvalue = [18, 12]", fillcolor="#f6d5bd"] ;
722 -> 723 ;
724 [label="X[8] <= 41.5\ngini = 0.48\nsamples = 17\nvalue = [7, 10]", fillcolor="#c4e2f7"] ;
723 -> 724 ;
725 [label="X[8] <= 35.0\ngini = 0.41\nsamples = 7\nvalue = [5, 2]", fillcolor="#efb388"] ;
724 -> 725 ;
726 [label="gini = 0.0\nsamples = 2\nvalue = [0, 2]", fillcolor="#399de5"] ;
725 -> 726 ;
727 [label="gini = 0.0\nsamples = 5\nvalue = [5, 0]", fillcolor="#e58139"] ;
725 -> 727 ;
728 [label="X[24] <= 3.5\ngini = 0.32\nsamples = 10\nvalue = [2, 8]", fillcolor="#6ab6ec"] ;
724 -> 728 ;
729 [label="gini = 0.0\nsamples = 1\nvalue = [1, 0]", fillcolor="#e58139"] ;
728 -> 729 ;
730 [label="X[1] <= 52.0\ngini = 0.2\nsamples = 9\nvalue = [1, 8]", fillcolor="#52a9e8"] ;
728 -> 730 ;
731 [label="gini = 0.0\nsamples = 8\nvalue = [0, 8]", fillcolor="#399de5"] ;
730 -> 731 ;
732 [label="gini = 0.0\nsamples = 1\nvalue = [1, 0]", fillcolor="#e58139"] ;
730 -> 732 ;
733 [label="X[17] <= 4.9\ngini = 0.26\nsamples = 13\nvalue = [11, 2]", fillcolor="#ea985d"] ;
723 -> 733 ;
734 [label="X[10] <= 44.5\ngini = 0.15\nsamples = 12\nvalue = [11, 1]", fillcolor="#e78c4b"] ;
733 -> 734 ;
735 [label="gini = 0.0\nsamples = 10\nvalue = [10, 0]", fillcolor="#e58139"] ;
734 -> 735 ;
736 [label="X[1] <= 50.5\ngini = 0.5\nsamples = 2\nvalue = [1, 1]", fillcolor="#ffffff"] ;
734 -> 736 ;
737 [label="gini = 0.0\nsamples = 1\nvalue = [0, 1]", fillcolor="#399de5"] ;
736 -> 737 ;
738 [label="gini = 0.0\nsamples = 1\nvalue = [1, 0]", fillcolor="#e58139"] ;
736 -> 738 ;
739 [label="gini = 0.0\nsamples = 1\nvalue = [0, 1]", fillcolor="#399de5"] ;
733 -> 739 ;
740 [label="X[15] <= 62.0\ngini = 0.09\nsamples = 20\nvalue = [19, 1]", fillcolor="#e68843"] ;
722 -> 740 ;
741 [label="gini = 0.0\nsamples = 19\nvalue = [19, 0]", fillcolor="#e58139"] ;
740 -> 741 ;
742 [label="gini = 0.0\nsamples = 1\nvalue = [0, 1]", fillcolor="#399de5"] ;
740 -> 742 ;
743 [label="X[21] <= 1.5\ngini = 0.48\nsamples = 5\nvalue = [2, 3]", fillcolor="#bddef6"] ;
709 -> 743 ;
744 [label="gini = 0.0\nsamples = 3\nvalue = [0, 3]", fillcolor="#399de5"] ;
743 -> 744 ;
745 [label="gini = 0.0\nsamples = 2\nvalue = [2, 0]", fillcolor="#e58139"] ;
743 -> 745 ;
746 [label="X[12] <= 53.0\ngini = 0.49\nsamples = 7\nvalue = [3, 4]", fillcolor="#cee6f8"] ;
708 -> 746 ;
747 [label="gini = 0.0\nsamples = 4\nvalue = [0, 4]", fillcolor="#399de5"] ;
746 -> 747 ;
748 [label="gini = 0.0\nsamples = 3\nvalue = [3, 0]", fillcolor="#e58139"] ;
746 -> 748 ;
749 [label="X[22] <= 3.0\ngini = 0.47\nsamples = 8\nvalue = [3, 5]", fillcolor="#b0d8f5"] ;
707 -> 749 ;
750 [label="gini = 0.0\nsamples = 4\nvalue = [0, 4]", fillcolor="#399de5"] ;
749 -> 750 ;
751 [label="X[6] <= 50.5\ngini = 0.38\nsamples = 4\nvalue = [3, 1]", fillcolor="#eeab7b"] ;
749 -> 751 ;
752 [label="gini = 0.0\nsamples = 1\nvalue = [0, 1]", fillcolor="#399de5"] ;
751 -> 752 ;
753 [label="gini = 0.0\nsamples = 3\nvalue = [3, 0]", fillcolor="#e58139"] ;
751 -> 753 ;
754 [label="X[14] <= 51.0\ngini = 0.38\nsamples = 4\nvalue = [1, 3]", fillcolor="#7bbeee"] ;
706 -> 754 ;
755 [label="gini = 0.0\nsamples = 3\nvalue = [0, 3]", fillcolor="#399de5"] ;
754 -> 755 ;
756 [label="gini = 0.0\nsamples = 1\nvalue = [1, 0]", fillcolor="#e58139"] ;
754 -> 756 ;
757 [label="X[22] <= 2.5\ngini = 0.5\nsamples = 82\nvalue = [43, 39]", fillcolor="#fdf3ed"] ;
493 -> 757 ;
758 [label="X[25] <= 4.5\ngini = 0.45\nsamples = 44\nvalue = [29, 15]", fillcolor="#f2c29f"] ;
757 -> 758 ;
759 [label="X[12] <= 51.5\ngini = 0.26\nsamples = 20\nvalue = [17, 3]", fillcolor="#ea975c"] ;
758 -> 759 ;
760 [label="gini = 0.0\nsamples = 13\nvalue = [13, 0]", fillcolor="#e58139"] ;
759 -> 760 ;
761 [label="X[17] <= 4.3\ngini = 0.49\nsamples = 7\nvalue = [4, 3]", fillcolor="#f8e0ce"] ;
759 -> 761 ;
762 [label="X[11] <= 51.5\ngini = 0.38\nsamples = 4\nvalue = [1, 3]", fillcolor="#7bbeee"] ;
761 -> 762 ;
763 [label="gini = 0.0\nsamples = 3\nvalue = [0, 3]", fillcolor="#399de5"] ;
762 -> 763 ;
764 [label="gini = 0.0\nsamples = 1\nvalue = [1, 0]", fillcolor="#e58139"] ;
762 -> 764 ;
765 [label="gini = 0.0\nsamples = 3\nvalue = [3, 0]", fillcolor="#e58139"] ;
761 -> 765 ;
766 [label="X[24] <= 3.83\ngini = 0.5\nsamples = 24\nvalue = [12, 12]", fillcolor="#ffffff"] ;
758 -> 766 ;
767 [label="X[15] <= 57.0\ngini = 0.22\nsamples = 8\nvalue = [1, 7]", fillcolor="#55abe9"] ;
766 -> 767 ;
768 [label="gini = 0.0\nsamples = 7\nvalue = [0, 7]", fillcolor="#399de5"] ;
767 -> 768 ;
769 [label="gini = 0.0\nsamples = 1\nvalue = [1, 0]", fillcolor="#e58139"] ;
767 -> 769 ;
770 [label="X[17] <= 4.3\ngini = 0.43\nsamples = 16\nvalue = [11, 5]", fillcolor="#f1ba93"] ;
766 -> 770 ;
771 [label="X[8] <= 41.5\ngini = 0.32\nsamples = 5\nvalue = [1, 4]", fillcolor="#6ab6ec"] ;
770 -> 771 ;
772 [label="gini = 0.0\nsamples = 1\nvalue = [1, 0]", fillcolor="#e58139"] ;
771 -> 772 ;
773 [label="gini = 0.0\nsamples = 4\nvalue = [0, 4]", fillcolor="#399de5"] ;
771 -> 773 ;
774 [label="X[9] <= 45.5\ngini = 0.17\nsamples = 11\nvalue = [10, 1]", fillcolor="#e88e4d"] ;
770 -> 774 ;
775 [label="X[17] <= 4.9\ngini = 0.5\nsamples = 2\nvalue = [1, 1]", fillcolor="#ffffff"] ;
774 -> 775 ;
776 [label="gini = 0.0\nsamples = 1\nvalue = [0, 1]", fillcolor="#399de5"] ;
775 -> 776 ;
777 [label="gini = 0.0\nsamples = 1\nvalue = [1, 0]", fillcolor="#e58139"] ;
775 -> 777 ;
778 [label="gini = 0.0\nsamples = 9\nvalue = [9, 0]", fillcolor="#e58139"] ;
774 -> 778 ;
779 [label="X[2] <= 53.0\ngini = 0.47\nsamples = 38\nvalue = [14, 24]", fillcolor="#acd6f4"] ;
757 -> 779 ;
780 [label="X[7] <= 50.5\ngini = 0.5\nsamples = 26\nvalue = [13, 13]", fillcolor="#ffffff"] ;
779 -> 780 ;
781 [label="X[17] <= 3.5\ngini = 0.28\nsamples = 12\nvalue = [10, 2]", fillcolor="#ea9a61"] ;
780 -> 781 ;
782 [label="gini = 0.0\nsamples = 1\nvalue = [0, 1]", fillcolor="#399de5"] ;
781 -> 782 ;
783 [label="X[21] <= 0.5\ngini = 0.17\nsamples = 11\nvalue = [10, 1]", fillcolor="#e88e4d"] ;
781 -> 783 ;
784 [label="X[10] <= 42.5\ngini = 0.5\nsamples = 2\nvalue = [1, 1]", fillcolor="#ffffff"] ;
783 -> 784 ;
785 [label="gini = 0.0\nsamples = 1\nvalue = [0, 1]", fillcolor="#399de5"] ;
784 -> 785 ;
786 [label="gini = 0.0\nsamples = 1\nvalue = [1, 0]", fillcolor="#e58139"] ;
784 -> 786 ;
787 [label="gini = 0.0\nsamples = 9\nvalue = [9, 0]", fillcolor="#e58139"] ;
783 -> 787 ;
788 [label="X[21] <= 2.0\ngini = 0.34\nsamples = 14\nvalue = [3, 11]", fillcolor="#6fb8ec"] ;
780 -> 788 ;
789 [label="X[10] <= 38.5\ngini = 0.48\nsamples = 5\nvalue = [3, 2]", fillcolor="#f6d5bd"] ;
788 -> 789 ;
790 [label="gini = 0.0\nsamples = 2\nvalue = [0, 2]", fillcolor="#399de5"] ;
789 -> 790 ;
791 [label="gini = 0.0\nsamples = 3\nvalue = [3, 0]", fillcolor="#e58139"] ;
789 -> 791 ;
792 [label="gini = 0.0\nsamples = 9\nvalue = [0, 9]", fillcolor="#399de5"] ;
788 -> 792 ;
793 [label="X[10] <= 40.0\ngini = 0.15\nsamples = 12\nvalue = [1, 11]", fillcolor="#4ba6e7"] ;
779 -> 793 ;
794 [label="X[22] <= 3.5\ngini = 0.5\nsamples = 2\nvalue = [1, 1]", fillcolor="#ffffff"] ;
793 -> 794 ;
795 [label="gini = 0.0\nsamples = 1\nvalue = [1, 0]", fillcolor="#e58139"] ;
794 -> 795 ;
796 [label="gini = 0.0\nsamples = 1\nvalue = [0, 1]", fillcolor="#399de5"] ;
794 -> 796 ;
797 [label="gini = 0.0\nsamples = 10\nvalue = [0, 10]", fillcolor="#399de5"] ;
793 -> 797 ;
798 [label="X[22] <= 2.5\ngini = 0.5\nsamples = 290\nvalue = [155, 135]", fillcolor="#fcefe5"] ;
2 -> 798 ;
799 [label="X[21] <= 2.5\ngini = 0.46\nsamples = 174\nvalue = [112, 62]", fillcolor="#f3c7a7"] ;
798 -> 799 ;
800 [label="X[19] <= 0.5\ngini = 0.37\nsamples = 119\nvalue = [90, 29]", fillcolor="#edaa79"] ;
799 -> 800 ;
801 [label="X[7] <= 53.5\ngini = 0.29\nsamples = 102\nvalue = [84, 18]", fillcolor="#eb9c63"] ;
800 -> 801 ;
802 [label="X[6] <= 55.0\ngini = 0.26\nsamples = 99\nvalue = [84, 15]", fillcolor="#ea985c"] ;
801 -> 802 ;
803 [label="X[24] <= 4.5\ngini = 0.22\nsamples = 95\nvalue = [83, 12]", fillcolor="#e99356"] ;
802 -> 803 ;
804 [label="X[1] <= 54.5\ngini = 0.04\nsamples = 55\nvalue = [54, 1]", fillcolor="#e5833d"] ;
803 -> 804 ;
805 [label="gini = 0.0\nsamples = 53\nvalue = [53, 0]", fillcolor="#e58139"] ;
804 -> 805 ;
806 [label="X[2] <= 53.5\ngini = 0.5\nsamples = 2\nvalue = [1, 1]", fillcolor="#ffffff"] ;
804 -> 806 ;
807 [label="gini = 0.0\nsamples = 1\nvalue = [1, 0]", fillcolor="#e58139"] ;
806 -> 807 ;
808 [label="gini = 0.0\nsamples = 1\nvalue = [0, 1]", fillcolor="#399de5"] ;
806 -> 808 ;
809 [label="X[2] <= 53.0\ngini = 0.4\nsamples = 40\nvalue = [29, 11]", fillcolor="#efb184"] ;
803 -> 809 ;
810 [label="X[17] <= 4.9\ngini = 0.25\nsamples = 27\nvalue = [23, 4]", fillcolor="#ea975b"] ;
809 -> 810 ;
811 [label="X[17] <= 3.6\ngini = 0.09\nsamples = 21\nvalue = [20, 1]", fillcolor="#e68743"] ;
810 -> 811 ;
812 [label="gini = 0.0\nsamples = 1\nvalue = [0, 1]", fillcolor="#399de5"] ;
811 -> 812 ;
813 [label="gini = 0.0\nsamples = 20\nvalue = [20, 0]", fillcolor="#e58139"] ;
811 -> 813 ;
814 [label="X[10] <= 25.5\ngini = 0.5\nsamples = 6\nvalue = [3, 3]", fillcolor="#ffffff"] ;
810 -> 814 ;
815 [label="gini = 0.0\nsamples = 2\nvalue = [0, 2]", fillcolor="#399de5"] ;
814 -> 815 ;
816 [label="X[15] <= 51.5\ngini = 0.38\nsamples = 4\nvalue = [3, 1]", fillcolor="#eeab7b"] ;
814 -> 816 ;
817 [label="gini = 0.0\nsamples = 3\nvalue = [3, 0]", fillcolor="#e58139"] ;
816 -> 817 ;
818 [label="gini = 0.0\nsamples = 1\nvalue = [0, 1]", fillcolor="#399de5"] ;
816 -> 818 ;
819 [label="X[21] <= 0.5\ngini = 0.5\nsamples = 13\nvalue = [6, 7]", fillcolor="#e3f1fb"] ;
809 -> 819 ;
820 [label="X[11] <= 51.0\ngini = 0.28\nsamples = 6\nvalue = [1, 5]", fillcolor="#61b1ea"] ;
819 -> 820 ;
821 [label="X[17] <= 4.8\ngini = 0.5\nsamples = 2\nvalue = [1, 1]", fillcolor="#ffffff"] ;
820 -> 821 ;
822 [label="gini = 0.0\nsamples = 1\nvalue = [0, 1]", fillcolor="#399de5"] ;
821 -> 822 ;
823 [label="gini = 0.0\nsamples = 1\nvalue = [1, 0]", fillcolor="#e58139"] ;
821 -> 823 ;
824 [label="gini = 0.0\nsamples = 4\nvalue = [0, 4]", fillcolor="#399de5"] ;
820 -> 824 ;
825 [label="X[2] <= 55.0\ngini = 0.41\nsamples = 7\nvalue = [5, 2]", fillcolor="#efb388"] ;
819 -> 825 ;
826 [label="gini = 0.0\nsamples = 1\nvalue = [0, 1]", fillcolor="#399de5"] ;
825 -> 826 ;
827 [label="X[25] <= 4.5\ngini = 0.28\nsamples = 6\nvalue = [5, 1]", fillcolor="#ea9a61"] ;
825 -> 827 ;
828 [label="gini = 0.0\nsamples = 1\nvalue = [0, 1]", fillcolor="#399de5"] ;
827 -> 828 ;
829 [label="gini = 0.0\nsamples = 5\nvalue = [5, 0]", fillcolor="#e58139"] ;
827 -> 829 ;
830 [label="X[2] <= 54.0\ngini = 0.38\nsamples = 4\nvalue = [1, 3]", fillcolor="#7bbeee"] ;
802 -> 830 ;
831 [label="gini = 0.0\nsamples = 3\nvalue = [0, 3]", fillcolor="#399de5"] ;
830 -> 831 ;
832 [label="gini = 0.0\nsamples = 1\nvalue = [1, 0]", fillcolor="#e58139"] ;
830 -> 832 ;
833 [label="gini = 0.0\nsamples = 3\nvalue = [0, 3]", fillcolor="#399de5"] ;
801 -> 833 ;
834 [label="X[4] <= 50.5\ngini = 0.46\nsamples = 17\nvalue = [6, 11]", fillcolor="#a5d2f3"] ;
800 -> 834 ;
835 [label="X[13] <= 52.5\ngini = 0.48\nsamples = 10\nvalue = [6, 4]", fillcolor="#f6d5bd"] ;
834 -> 835 ;
836 [label="X[24] <= 4.5\ngini = 0.44\nsamples = 6\nvalue = [2, 4]", fillcolor="#9ccef2"] ;
835 -> 836 ;
837 [label="X[7] <= 50.5\ngini = 0.44\nsamples = 3\nvalue = [2, 1]", fillcolor="#f2c09c"] ;
836 -> 837 ;
838 [label="gini = 0.0\nsamples = 2\nvalue = [2, 0]", fillcolor="#e58139"] ;
837 -> 838 ;
839 [label="gini = 0.0\nsamples = 1\nvalue = [0, 1]", fillcolor="#399de5"] ;
837 -> 839 ;
840 [label="gini = 0.0\nsamples = 3\nvalue = [0, 3]", fillcolor="#399de5"] ;
836 -> 840 ;
841 [label="gini = 0.0\nsamples = 4\nvalue = [4, 0]", fillcolor="#e58139"] ;
835 -> 841 ;
842 [label="gini = 0.0\nsamples = 7\nvalue = [0, 7]", fillcolor="#399de5"] ;
834 -> 842 ;
843 [label="X[23] <= 0.5\ngini = 0.48\nsamples = 55\nvalue = [22, 33]", fillcolor="#bddef6"] ;
799 -> 843 ;
844 [label="X[24] <= 3.17\ngini = 0.5\nsamples = 46\nvalue = [22, 24]", fillcolor="#eff7fd"] ;
843 -> 844 ;
845 [label="gini = 0.0\nsamples = 6\nvalue = [0, 6]", fillcolor="#399de5"] ;
844 -> 845 ;
846 [label="X[10] <= 43.5\ngini = 0.5\nsamples = 40\nvalue = [22, 18]", fillcolor="#fae8db"] ;
844 -> 846 ;
847 [label="X[9] <= 31.0\ngini = 0.48\nsamples = 37\nvalue = [22, 15]", fillcolor="#f7d7c0"] ;
846 -> 847 ;
848 [label="X[17] <= 4.8\ngini = 0.32\nsamples = 5\nvalue = [1, 4]", fillcolor="#6ab6ec"] ;
847 -> 848 ;
849 [label="gini = 0.0\nsamples = 4\nvalue = [0, 4]", fillcolor="#399de5"] ;
848 -> 849 ;
850 [label="gini = 0.0\nsamples = 1\nvalue = [1, 0]", fillcolor="#e58139"] ;
848 -> 850 ;
851 [label="X[9] <= 36.0\ngini = 0.45\nsamples = 32\nvalue = [21, 11]", fillcolor="#f3c3a1"] ;
847 -> 851 ;
852 [label="gini = 0.0\nsamples = 8\nvalue = [8, 0]", fillcolor="#e58139"] ;
851 -> 852 ;
853 [label="X[2] <= 53.0\ngini = 0.5\nsamples = 24\nvalue = [13, 11]", fillcolor="#fbece1"] ;
851 -> 853 ;
854 [label="X[8] <= 40.5\ngini = 0.45\nsamples = 20\nvalue = [13, 7]", fillcolor="#f3c5a4"] ;
853 -> 854 ;
855 [label="X[21] <= 4.5\ngini = 0.5\nsamples = 11\nvalue = [5, 6]", fillcolor="#deeffb"] ;
854 -> 855 ;
856 [label="X[8] <= 33.0\ngini = 0.47\nsamples = 8\nvalue = [5, 3]", fillcolor="#f5cdb0"] ;
855 -> 856 ;
857 [label="gini = 0.0\nsamples = 1\nvalue = [0, 1]", fillcolor="#399de5"] ;
856 -> 857 ;
858 [label="X[25] <= 2.5\ngini = 0.41\nsamples = 7\nvalue = [5, 2]", fillcolor="#efb388"] ;
856 -> 858 ;
859 [label="gini = 0.0\nsamples = 1\nvalue = [0, 1]", fillcolor="#399de5"] ;
858 -> 859 ;
860 [label="X[5] <= 52.5\ngini = 0.28\nsamples = 6\nvalue = [5, 1]", fillcolor="#ea9a61"] ;
858 -> 860 ;
861 [label="gini = 0.0\nsamples = 5\nvalue = [5, 0]", fillcolor="#e58139"] ;
860 -> 861 ;
862 [label="gini = 0.0\nsamples = 1\nvalue = [0, 1]", fillcolor="#399de5"] ;
860 -> 862 ;
863 [label="gini = 0.0\nsamples = 3\nvalue = [0, 3]", fillcolor="#399de5"] ;
855 -> 863 ;
864 [label="X[12] <= 57.0\ngini = 0.2\nsamples = 9\nvalue = [8, 1]", fillcolor="#e89152"] ;
854 -> 864 ;
865 [label="gini = 0.0\nsamples = 8\nvalue = [8, 0]", fillcolor="#e58139"] ;
864 -> 865 ;
866 [label="gini = 0.0\nsamples = 1\nvalue = [0, 1]", fillcolor="#399de5"] ;
864 -> 866 ;
867 [label="gini = 0.0\nsamples = 4\nvalue = [0, 4]", fillcolor="#399de5"] ;
853 -> 867 ;
868 [label="gini = 0.0\nsamples = 3\nvalue = [0, 3]", fillcolor="#399de5"] ;
846 -> 868 ;
869 [label="gini = 0.0\nsamples = 9\nvalue = [0, 9]", fillcolor="#399de5"] ;
843 -> 869 ;
870 [label="X[16] <= 50.5\ngini = 0.47\nsamples = 116\nvalue = [43, 73]", fillcolor="#aed7f4"] ;
798 -> 870 ;
871 [label="X[7] <= 52.5\ngini = 0.5\nsamples = 84\nvalue = [39, 45]", fillcolor="#e5f2fc"] ;
870 -> 871 ;
872 [label="X[12] <= 50.5\ngini = 0.5\nsamples = 74\nvalue = [38, 36]", fillcolor="#fef8f5"] ;
871 -> 872 ;
873 [label="X[9] <= 49.0\ngini = 0.47\nsamples = 44\nvalue = [17, 27]", fillcolor="#b6dbf5"] ;
872 -> 873 ;
874 [label="X[23] <= 0.5\ngini = 0.5\nsamples = 37\nvalue = [17, 20]", fillcolor="#e1f0fb"] ;
873 -> 874 ;
875 [label="X[22] <= 4.5\ngini = 0.49\nsamples = 27\nvalue = [15, 12]", fillcolor="#fae6d7"] ;
874 -> 875 ;
876 [label="X[21] <= 0.5\ngini = 0.5\nsamples = 22\nvalue = [10, 12]", fillcolor="#deeffb"] ;
875 -> 876 ;
877 [label="gini = 0.0\nsamples = 5\nvalue = [0, 5]", fillcolor="#399de5"] ;
876 -> 877 ;
878 [label="X[5] <= 50.5\ngini = 0.48\nsamples = 17\nvalue = [10, 7]", fillcolor="#f7d9c4"] ;
876 -> 878 ;
879 [label="X[22] <= 3.5\ngini = 0.32\nsamples = 10\nvalue = [8, 2]", fillcolor="#eca06a"] ;
878 -> 879 ;
880 [label="gini = 0.0\nsamples = 7\nvalue = [7, 0]", fillcolor="#e58139"] ;
879 -> 880 ;
881 [label="X[11] <= 51.0\ngini = 0.44\nsamples = 3\nvalue = [1, 2]", fillcolor="#9ccef2"] ;
879 -> 881 ;
882 [label="gini = 0.0\nsamples = 2\nvalue = [0, 2]", fillcolor="#399de5"] ;
881 -> 882 ;
883 [label="gini = 0.0\nsamples = 1\nvalue = [1, 0]", fillcolor="#e58139"] ;
881 -> 883 ;
884 [label="X[9] <= 46.5\ngini = 0.41\nsamples = 7\nvalue = [2, 5]", fillcolor="#88c4ef"] ;
878 -> 884 ;
885 [label="gini = 0.0\nsamples = 4\nvalue = [0, 4]", fillcolor="#399de5"] ;
884 -> 885 ;
886 [label="X[8] <= 36.0\ngini = 0.44\nsamples = 3\nvalue = [2, 1]", fillcolor="#f2c09c"] ;
884 -> 886 ;
887 [label="gini = 0.0\nsamples = 1\nvalue = [0, 1]", fillcolor="#399de5"] ;
886 -> 887 ;
888 [label="gini = 0.0\nsamples = 2\nvalue = [2, 0]", fillcolor="#e58139"] ;
886 -> 888 ;
889 [label="gini = 0.0\nsamples = 5\nvalue = [5, 0]", fillcolor="#e58139"] ;
875 -> 889 ;
890 [label="X[9] <= 47.0\ngini = 0.32\nsamples = 10\nvalue = [2, 8]", fillcolor="#6ab6ec"] ;
874 -> 890 ;
891 [label="gini = 0.0\nsamples = 8\nvalue = [0, 8]", fillcolor="#399de5"] ;
890 -> 891 ;
892 [label="gini = 0.0\nsamples = 2\nvalue = [2, 0]", fillcolor="#e58139"] ;
890 -> 892 ;
893 [label="gini = 0.0\nsamples = 7\nvalue = [0, 7]", fillcolor="#399de5"] ;
873 -> 893 ;
894 [label="X[9] <= 44.0\ngini = 0.42\nsamples = 30\nvalue = [21, 9]", fillcolor="#f0b78e"] ;
872 -> 894 ;
895 [label="X[24] <= 3.5\ngini = 0.49\nsamples = 21\nvalue = [12, 9]", fillcolor="#f8e0ce"] ;
894 -> 895 ;
896 [label="X[5] <= 51.5\ngini = 0.24\nsamples = 7\nvalue = [1, 6]", fillcolor="#5aade9"] ;
895 -> 896 ;
897 [label="gini = 0.0\nsamples = 6\nvalue = [0, 6]", fillcolor="#399de5"] ;
896 -> 897 ;
898 [label="gini = 0.0\nsamples = 1\nvalue = [1, 0]", fillcolor="#e58139"] ;
896 -> 898 ;
899 [label="X[10] <= 34.5\ngini = 0.34\nsamples = 14\nvalue = [11, 3]", fillcolor="#eca36f"] ;
895 -> 899 ;
900 [label="X[25] <= 4.5\ngini = 0.44\nsamples = 3\nvalue = [1, 2]", fillcolor="#9ccef2"] ;
899 -> 900 ;
901 [label="gini = 0.0\nsamples = 2\nvalue = [0, 2]", fillcolor="#399de5"] ;
900 -> 901 ;
902 [label="gini = 0.0\nsamples = 1\nvalue = [1, 0]", fillcolor="#e58139"] ;
900 -> 902 ;
903 [label="X[13] <= 56.0\ngini = 0.17\nsamples = 11\nvalue = [10, 1]", fillcolor="#e88e4d"] ;
899 -> 903 ;
904 [label="gini = 0.0\nsamples = 10\nvalue = [10, 0]", fillcolor="#e58139"] ;
903 -> 904 ;
905 [label="gini = 0.0\nsamples = 1\nvalue = [0, 1]", fillcolor="#399de5"] ;
903 -> 905 ;
906 [label="gini = 0.0\nsamples = 9\nvalue = [9, 0]", fillcolor="#e58139"] ;
894 -> 906 ;
907 [label="X[6] <= 53.0\ngini = 0.18\nsamples = 10\nvalue = [1, 9]", fillcolor="#4fa8e8"] ;
871 -> 907 ;
908 [label="gini = 0.0\nsamples = 8\nvalue = [0, 8]", fillcolor="#399de5"] ;
907 -> 908 ;
909 [label="X[21] <= 1.5\ngini = 0.5\nsamples = 2\nvalue = [1, 1]", fillcolor="#ffffff"] ;
907 -> 909 ;
910 [label="gini = 0.0\nsamples = 1\nvalue = [0, 1]", fillcolor="#399de5"] ;
909 -> 910 ;
911 [label="gini = 0.0\nsamples = 1\nvalue = [1, 0]", fillcolor="#e58139"] ;
909 -> 911 ;
912 [label="X[9] <= 39.5\ngini = 0.22\nsamples = 32\nvalue = [4, 28]", fillcolor="#55abe9"] ;
870 -> 912 ;
913 [label="X[22] <= 3.5\ngini = 0.44\nsamples = 3\nvalue = [2, 1]", fillcolor="#f2c09c"] ;
912 -> 913 ;
914 [label="gini = 0.0\nsamples = 2\nvalue = [2, 0]", fillcolor="#e58139"] ;
913 -> 914 ;
915 [label="gini = 0.0\nsamples = 1\nvalue = [0, 1]", fillcolor="#399de5"] ;
913 -> 915 ;
916 [label="X[14] <= 61.0\ngini = 0.13\nsamples = 29\nvalue = [2, 27]", fillcolor="#48a4e7"] ;
912 -> 916 ;
917 [label="X[10] <= 39.5\ngini = 0.07\nsamples = 28\nvalue = [1, 27]", fillcolor="#40a1e6"] ;
916 -> 917 ;
918 [label="X[3] <= 50.5\ngini = 0.44\nsamples = 3\nvalue = [1, 2]", fillcolor="#9ccef2"] ;
917 -> 918 ;
919 [label="gini = 0.0\nsamples = 2\nvalue = [0, 2]", fillcolor="#399de5"] ;
918 -> 919 ;
920 [label="gini = 0.0\nsamples = 1\nvalue = [1, 0]", fillcolor="#e58139"] ;
918 -> 920 ;
921 [label="gini = 0.0\nsamples = 25\nvalue = [0, 25]", fillcolor="#399de5"] ;
917 -> 921 ;
922 [label="gini = 0.0\nsamples = 1\nvalue = [1, 0]", fillcolor="#e58139"] ;
916 -> 922 ;
923 [label="X[23] <= 0.5\ngini = 0.5\nsamples = 1506\nvalue = [711, 795]", fillcolor="#eaf5fc"] ;
1 -> 923 ;
924 [label="X[20] <= 0.5\ngini = 0.49\nsamples = 1013\nvalue = [574, 439]", fillcolor="#f9e1d0"] ;
923 -> 924 ;
925 [label="X[19] <= 0.5\ngini = 0.47\nsamples = 838\nvalue = [525, 313]", fillcolor="#f5ccaf"] ;
924 -> 925 ;
926 [label="X[9] <= 59.5\ngini = 0.44\nsamples = 713\nvalue = [484, 229]", fillcolor="#f1bd97"] ;
925 -> 926 ;
927 [label="X[25] <= 2.5\ngini = 0.4\nsamples = 611\nvalue = [444, 167]", fillcolor="#efb083"] ;
926 -> 927 ;
928 [label="X[11] <= 59.5\ngini = 0.48\nsamples = 34\nvalue = [14, 20]", fillcolor="#c4e2f7"] ;
927 -> 928 ;
929 [label="X[2] <= 56.5\ngini = 0.5\nsamples = 26\nvalue = [14, 12]", fillcolor="#fbede3"] ;
928 -> 929 ;
930 [label="X[8] <= 49.5\ngini = 0.36\nsamples = 13\nvalue = [3, 10]", fillcolor="#74baed"] ;
929 -> 930 ;
931 [label="X[9] <= 55.5\ngini = 0.5\nsamples = 6\nvalue = [3, 3]", fillcolor="#ffffff"] ;
930 -> 931 ;
932 [label="gini = 0.0\nsamples = 3\nvalue = [3, 0]", fillcolor="#e58139"] ;
931 -> 932 ;
933 [label="gini = 0.0\nsamples = 3\nvalue = [0, 3]", fillcolor="#399de5"] ;
931 -> 933 ;
934 [label="gini = 0.0\nsamples = 7\nvalue = [0, 7]", fillcolor="#399de5"] ;
930 -> 934 ;
935 [label="X[16] <= 50.5\ngini = 0.26\nsamples = 13\nvalue = [11, 2]", fillcolor="#ea985d"] ;
929 -> 935 ;
936 [label="gini = 0.0\nsamples = 8\nvalue = [8, 0]", fillcolor="#e58139"] ;
935 -> 936 ;
937 [label="X[14] <= 51.5\ngini = 0.48\nsamples = 5\nvalue = [3, 2]", fillcolor="#f6d5bd"] ;
935 -> 937 ;
938 [label="gini = 0.0\nsamples = 2\nvalue = [0, 2]", fillcolor="#399de5"] ;
937 -> 938 ;
939 [label="gini = 0.0\nsamples = 3\nvalue = [3, 0]", fillcolor="#e58139"] ;
937 -> 939 ;
940 [label="gini = 0.0\nsamples = 8\nvalue = [0, 8]", fillcolor="#399de5"] ;
928 -> 940 ;
941 [label="X[10] <= 50.5\ngini = 0.38\nsamples = 577\nvalue = [430, 147]", fillcolor="#eeac7d"] ;
927 -> 941 ;
942 [label="X[4] <= 50.5\ngini = 0.32\nsamples = 340\nvalue = [271, 69]", fillcolor="#eca16b"] ;
941 -> 942 ;
943 [label="X[12] <= 51.5\ngini = 0.08\nsamples = 45\nvalue = [43, 2]", fillcolor="#e68742"] ;
942 -> 943 ;
944 [label="X[21] <= 1.5\ngini = 0.44\nsamples = 6\nvalue = [4, 2]", fillcolor="#f2c09c"] ;
943 -> 944 ;
945 [label="gini = 0.0\nsamples = 4\nvalue = [4, 0]", fillcolor="#e58139"] ;
944 -> 945 ;
946 [label="gini = 0.0\nsamples = 2\nvalue = [0, 2]", fillcolor="#399de5"] ;
944 -> 946 ;
947 [label="gini = 0.0\nsamples = 39\nvalue = [39, 0]", fillcolor="#e58139"] ;
943 -> 947 ;
948 [label="X[9] <= 36.0\ngini = 0.35\nsamples = 295\nvalue = [228, 67]", fillcolor="#eda673"] ;
942 -> 948 ;
949 [label="gini = 0.0\nsamples = 2\nvalue = [0, 2]", fillcolor="#399de5"] ;
948 -> 949 ;
950 [label="X[3] <= 50.5\ngini = 0.35\nsamples = 293\nvalue = [228, 65]", fillcolor="#eca571"] ;
948 -> 950 ;
951 [label="X[22] <= 6.5\ngini = 0.21\nsamples = 75\nvalue = [66, 9]", fillcolor="#e99254"] ;
950 -> 951 ;
952 [label="X[11] <= 50.5\ngini = 0.19\nsamples = 74\nvalue = [66, 8]", fillcolor="#e89051"] ;
951 -> 952 ;
953 [label="gini = 0.0\nsamples = 1\nvalue = [0, 1]", fillcolor="#399de5"] ;
952 -> 953 ;
954 [label="X[11] <= 64.5\ngini = 0.17\nsamples = 73\nvalue = [66, 7]", fillcolor="#e88e4e"] ;
952 -> 954 ;
955 [label="X[21] <= 4.5\ngini = 0.15\nsamples = 72\nvalue = [66, 6]", fillcolor="#e78c4b"] ;
954 -> 955 ;
956 [label="X[2] <= 56.5\ngini = 0.11\nsamples = 68\nvalue = [64, 4]", fillcolor="#e78945"] ;
955 -> 956 ;
957 [label="gini = 0.0\nsamples = 45\nvalue = [45, 0]", fillcolor="#e58139"] ;
956 -> 957 ;
958 [label="X[17] <= 3.8\ngini = 0.29\nsamples = 23\nvalue = [19, 4]", fillcolor="#ea9c63"] ;
956 -> 958 ;
959 [label="gini = 0.0\nsamples = 1\nvalue = [0, 1]", fillcolor="#399de5"] ;
958 -> 959 ;
960 [label="X[10] <= 47.5\ngini = 0.24\nsamples = 22\nvalue = [19, 3]", fillcolor="#e99558"] ;
958 -> 960 ;
961 [label="X[4] <= 51.5\ngini = 0.4\nsamples = 11\nvalue = [8, 3]", fillcolor="#efb083"] ;
960 -> 961 ;
962 [label="gini = 0.0\nsamples = 1\nvalue = [0, 1]", fillcolor="#399de5"] ;
961 -> 962 ;
963 [label="X[24] <= 2.17\ngini = 0.32\nsamples = 10\nvalue = [8, 2]", fillcolor="#eca06a"] ;
961 -> 963 ;
964 [label="gini = 0.0\nsamples = 1\nvalue = [0, 1]", fillcolor="#399de5"] ;
963 -> 964 ;
965 [label="X[4] <= 53.5\ngini = 0.2\nsamples = 9\nvalue = [8, 1]", fillcolor="#e89152"] ;
963 -> 965 ;
966 [label="gini = 0.0\nsamples = 6\nvalue = [6, 0]", fillcolor="#e58139"] ;
965 -> 966 ;
967 [label="X[25] <= 4.5\ngini = 0.44\nsamples = 3\nvalue = [2, 1]", fillcolor="#f2c09c"] ;
965 -> 967 ;
968 [label="X[24] <= 4.5\ngini = 0.5\nsamples = 2\nvalue = [1, 1]", fillcolor="#ffffff"] ;
967 -> 968 ;
969 [label="gini = 0.0\nsamples = 1\nvalue = [0, 1]", fillcolor="#399de5"] ;
968 -> 969 ;
970 [label="gini = 0.0\nsamples = 1\nvalue = [1, 0]", fillcolor="#e58139"] ;
968 -> 970 ;
971 [label="gini = 0.0\nsamples = 1\nvalue = [1, 0]", fillcolor="#e58139"] ;
967 -> 971 ;
972 [label="gini = 0.0\nsamples = 11\nvalue = [11, 0]", fillcolor="#e58139"] ;
960 -> 972 ;
973 [label="X[10] <= 46.5\ngini = 0.5\nsamples = 4\nvalue = [2, 2]", fillcolor="#ffffff"] ;
955 -> 973 ;
974 [label="gini = 0.0\nsamples = 2\nvalue = [2, 0]", fillcolor="#e58139"] ;
973 -> 974 ;
975 [label="gini = 0.0\nsamples = 2\nvalue = [0, 2]", fillcolor="#399de5"] ;
973 -> 975 ;
976 [label="gini = 0.0\nsamples = 1\nvalue = [0, 1]", fillcolor="#399de5"] ;
954 -> 976 ;
977 [label="gini = 0.0\nsamples = 1\nvalue = [0, 1]", fillcolor="#399de5"] ;
951 -> 977 ;
978 [label="X[5] <= 52.5\ngini = 0.38\nsamples = 218\nvalue = [162, 56]", fillcolor="#eead7d"] ;
950 -> 978 ;
979 [label="X[15] <= 53.0\ngini = 0.31\nsamples = 110\nvalue = [89, 21]", fillcolor="#eb9f68"] ;
978 -> 979 ;
980 [label="X[24] <= 3.17\ngini = 0.24\nsamples = 88\nvalue = [76, 12]", fillcolor="#e99558"] ;
979 -> 980 ;
981 [label="X[21] <= 2.5\ngini = 0.46\nsamples = 11\nvalue = [7, 4]", fillcolor="#f4c9aa"] ;
980 -> 981 ;
982 [label="X[14] <= 54.5\ngini = 0.44\nsamples = 6\nvalue = [2, 4]", fillcolor="#9ccef2"] ;
981 -> 982 ;
983 [label="X[9] <= 40.0\ngini = 0.44\nsamples = 3\nvalue = [2, 1]", fillcolor="#f2c09c"] ;
982 -> 983 ;
984 [label="gini = 0.0\nsamples = 1\nvalue = [0, 1]", fillcolor="#399de5"] ;
983 -> 984 ;
985 [label="gini = 0.0\nsamples = 2\nvalue = [2, 0]", fillcolor="#e58139"] ;
983 -> 985 ;
986 [label="gini = 0.0\nsamples = 3\nvalue = [0, 3]", fillcolor="#399de5"] ;
982 -> 986 ;
987 [label="gini = 0.0\nsamples = 5\nvalue = [5, 0]", fillcolor="#e58139"] ;
981 -> 987 ;
988 [label="X[7] <= 50.5\ngini = 0.19\nsamples = 77\nvalue = [69, 8]", fillcolor="#e89050"] ;
980 -> 988 ;
989 [label="X[1] <= 63.5\ngini = 0.31\nsamples = 36\nvalue = [29, 7]", fillcolor="#eb9f69"] ;
988 -> 989 ;
990 [label="X[21] <= 4.5\ngini = 0.28\nsamples = 35\nvalue = [29, 6]", fillcolor="#ea9b62"] ;
989 -> 990 ;
991 [label="X[8] <= 48.5\ngini = 0.25\nsamples = 34\nvalue = [29, 5]", fillcolor="#e9975b"] ;
990 -> 991 ;
992 [label="gini = 0.0\nsamples = 1\nvalue = [0, 1]", fillcolor="#399de5"] ;
991 -> 992 ;
993 [label="X[3] <= 52.5\ngini = 0.21\nsamples = 33\nvalue = [29, 4]", fillcolor="#e99254"] ;
991 -> 993 ;
